tree
version=v4
num_class=1
num_tree_per_iteration=1
label_index=0
max_feature_idx=93
objective=regression
feature_names=streamflow_today_cumecs streamflow_anomaly_zscore flow_rate_of_change flow_velocity_km_per_day antecedent_rain_3d_sum antecedent_rain_7d_sum antecedent_rain_15d_sum antecedent_rain_30d_sum antecedent_rain_60d antecedent_rain_ewm rainfall_anomaly_zscore upstream_rain_mean_scaled upstream_rain_weighted_scaled upstream_rain_lagged_dist_sink soil_saturation_score antecedent_saturation_interaction is_post_monsoon_saturated monsoon_intensity monsoon_cumulative_rain dist_to_outlet_scaled upstream_area_scaled slope_scaled slope_uav_scaled forest_cover_scaled urban_cover_scaled rain_soilmoisture_interaction rain_urban_interaction rain_slope_interaction rain_basinsize_interaction uparea_rain_interaction station_id station_mean_flow station_std_flow station_p90_flow log_flow log_flow_sq rel_rate flow_accel_sign flow_norm_station flow_lag_1 flow_lag_2 flow_lag_3 flow_lag_4 flow_lag_5 flow_lag_6 flow_lag_7 rain_lag_1 rain_lag_2 rain_lag_3 log_flow_lag_1 log_flow_lag_2 log_flow_lag_3 log_flow_lag_4 log_flow_lag_5 log_flow_lag_6 log_flow_lag_7 flow_roll_mean_3d flow_roll_mean_7d flow_roll_max_7d flow_roll_std_7d rain_roll_std_7d flow_d1 flow_d2 flow_log_d1 is_rising is_flooding is_receding flow_lag1_ratio flow_vs_roll7 flow_spike_ratio flow_pct_of_7d_max is_worst_station week_of_year doy_sin doy_cos month_sin month_cos rain_ratio_3_30 rain_ratio_7_30 rain_ratio_3_60 rain_ratio_15_60 rain_accel log_rain_3d log_rain_7d log_rain_30d log_rain_ewm ups_x_logflow ups_x_sat logflow_x_sat preflood_alarm rain_anom_x_sat in_peak_monsoon in_pre_monsoon rain_load_ratio
feature_infos=[234.0609130859375:4436] [-2.5159332752227783:4.5381264686584473] [-1526.821044921875:2684.1337890625] none [0:0.58293735980987549] [0:0.59606009721755981] [0:0.64081573486328125] [0:0.47021636366844177] [0:0.46445563435554504] [0:0.55411428213119507] [-0.89337480068206787:4.694854736328125] [-0.4603826105594635:2.3618917465209961] [-0.45906215906143188:2.3738448619842529] [-0.23141174018383026:19.560401916503906] [0:0.46445563435554504] [0:0.39178207516670227] none [0:4] [0:0.3578982949256897] none none none none none none [-0.51802480220794678:2.0149714946746826] [-0.51417869329452515:2.0796201229095459] [-0.51410818099975586:2.043452262878418] [-0.5194927453994751:1.9567511081695557] [-0.47226178646087646:2.1340019702911377] none none none none [5.4598445892333984:8.3977336883544922] [29.809904098510742:70.521934509277344] [-0.34869343042373657:2.4559574127197266] -1:1:0 [-0.58669078350067139:10] [234.0609130859375:4436] [234.0609130859375:4436] [234.0609130859375:4436] [234.0609130859375:4436] [234.0609130859375:4436] [234.0609130859375:4436] [234.0609130859375:4436] [0:0.58293735980987549] [0:0.58293735980987549] [0:0.58293735980987549] [5.4598445892333984:8.3977336883544922] [5.4598445892333984:8.3977336883544922] [5.4598445892333984:8.3977336883544922] [5.4598445892333984:8.3977336883544922] [5.4598445892333984:8.3977336883544922] [5.4598445892333984:8.3977336883544922] [5.4598445892333984:8.3977336883544922] [234.20115661621094:3625.9453125] [234.7454833984375:2804.0576171875] [235.57540893554688:4436] [0:1602.7137451171875] [0:0.27508771419525146] [-1526.821044921875:2684.1337890625] [-3305.836181640625:2333.576416015625] [-0.42877483367919922:1.2400995492935181] -1:0:1 -1:0:1 -1:0:1 [0.65100008249282837:3.454979419708252] [-1165.958740234375:2754.91748046875] [0.47402563691139221:3.007375955581665] [0.24945226311683655:0.99977463483810425] none [0:52] [-0.99999076128005981:0.99999076128005981] [-0.99996298551559448:1] [-1:1] [-1:1] [2.1925870896666311e-06:2.2920324802398682] [2.2596868802793324e-06:1.9094805717468262] [2.192857891714084e-06:3.2588164806365967] [2.7756632334785536e-06:2.2175583839416504] [-0.083955705165863037:0.12374016642570496] [0:0.45928221940994263] [0:0.46753814816474915] [0:0.38540956377983093] [0:0.44090577960014343] [-3.7246935367584229:19.818643569946289] [-0.20994594693183899:1.0969754457473755] [0:3.3648765087127686] [-0.28748798370361328:2.7933878898620605] [-0.27834323048591614:1.9919279813766479] -1:0:1 -1:0:1 [0:0.00089205260155722499]
tree_sizes=4774 4588 4649 4785 4854 22348 4996 4790 5002 7735 4436 7293 4541 4547 4547 4562 4459 4349 4761 4899 4622 21017 7941 4870 8052 4667 4883 4467 4971 4793 5531 17924 5613 5304 7959 5001 4993 19164 19329 8435 5583 5508 19381 5250 5747 5325 5072 5401 5400 5232 5760 6080 7737 5348 7509 6191 6533 7908 6315 6046 6099 8502 6454 16123 8512 5652 6245 6041 6053 6472 6080 6100 8568 6570 6105 6555 6549 6539 6410 6863 6611 6802 6438 8420 6481 18119 6736 6732 7003 6744 6654 6661 6955 7612 6855 7128 7229 7574 7325 7545 6568 7302 7655 6816 6967 6750 7167 7182 7486 9741 10206 7839 13811 7999 8862 10379 8885 15217 9594 9004 8842 9200 13666 8980 8653 8645 10877 10881 8563 8941 8218 8789 8028 8259 8302 10863 10867 10522 11266 10667 10097 10832 12342 11899 10380 8854 9031 9048 9051 9831 9679 10107 10142 10648 10698 10736 11716 10778 10716 11668 10881 11229 12222 14444 10674 11522 11213 10381 10856 11876 11129 10387 11410 11826 11844 12514 11459 11349 11957 10688 14077 12551 13153 13504 12822 11102 12419 12560 12636 12892 12775 11642 12895 12273 12486 12830 12882 12431 12767 11799 11601 12988 13161 14211 14144 14006 12811 14118 14238 14228 13300 18429

Tree=0
num_leaves=42
num_cat=0
split_feature=36 36 36 36 1 36 36 68 62 36 36 0 36 25 36 38 2 36 36 36 36 36 69 14 47 61 36 36 36 36 36 36 36 36 36 36 36 36 36 36 36
split_gain=51.9594 21.4291 8.16764 2.66466 2.37991 2.04531 1.21768 1.03619 2.25324 0.421498 0.24106 0.169149 0.148355 0.142936 0.132423 0.0936818 0.276718 0.0850161 0.0509209 0.0491709 0.0400279 0.0297361 0.0140922 0.0494567 0.0135001 0.0113577 0.00975442 0.00842448 0.00806312 0.00678599 0.00270211 0.00160577 0.0011431 0.000912603 0.000530375 0.000504902 0.000254408 0.000125332 0.000110867 3.0563e-05 1.47973e-06
threshold=0.29216632246971136 -0.0864104889333248 0.049788387492299087 -0.15244187414646146 1.8343391418457033 -0.024494539014995095 0.13136333972215655 316.42364501953131 207.26910400390628 0.01028187992051244 -0.06197423301637172 1382.888366699219 -0.0061475576367229215 1.9850687980651858 -0.11310619860887526 1.0792889595031741 195.86439514160159 0.086063664406538024 0.02208056673407555 -0.037562483921647065 0.00047256327525246894 -0.013558749575167893 1.4351392984390261 0.25904724001884466 0.021754029206931595 195.86441040039065 0.032303426414728172 -0.0026018372736871238 -0.046319371089339249 0.0040632793679833421 -0.0087968735024332983 -0.019795672968029972 -0.0042752027511596671 -0.0011818038183264432 -0.031387809664010995 0.014498212840408089 0.0017476144130341711 0.006170867010951043 -0.0033747316338121887 -0.0021081343293189998 -0.0028540125349536534
decision_type=2 2 2 2 2 2 2 2 2 2 2 2 2 2 2 2 2 2 2 2 2 2 2 2 2 2 2 2 2 2 2 2 2 2 2 2 2 2 2 2 2
left_child=1 3 5 11 15 10 17 8 13 12 -3 24 21 -6 -5 16 -2 -4 35 28 27 31 -13 -24 -1 -17 -20 32 -12 36 -23 -7 -14 39 -21 -11 -22 -31 -34 -29 -40
right_child=4 2 6 14 7 9 -8 -9 -10 18 19 22 20 -15 -16 25 -18 -19 26 34 29 30 23 -25 -26 -27 -28 33 -30 37 -32 -33 38 -35 -36 -37 -38 -39 40 -41 -42
leaf_value=-0.0075343213312636884 0.0033263193170122896 -0.0043649627176982906 -0.0015128788455932504 -0.0055774289254059833 0.0098013334635268685 -0.0032513452304666927 0.00082328649610307301 0.0056400088176694549 0.017201625859363596 -0.002579390418315558 -0.0038926386433317034 -0.0076600555008005302 -0.0029155896211167558 0.0065066122615331842 -0.0048618391620239634 0.0029804080570903957 0.0063463458941237071 -0.00084403701795850291 -0.0022903714289106048 -0.0035034693673826819 -0.0027935880520891499 -0.0030285699176612088 -0.0089081829754211993 -0.0072843131051720106 -0.0066858504993372418 0.0045716796829669039 -0.0020203236556578293 -0.0028639389935004563 -0.0036577568021589424 -0.0027160191185889105 -0.0029575037957089959 -0.003140852833569309 -0.0028874197834233926 -0.0028217601018617252 -0.0033733500493308625 -0.002467860204928723 -0.0027609131658147914 -0.002661359031380687 -0.0028720812490224089 -0.0028480884716836049 -0.0028706894262540326
leaf_weight=43.898112773895264 27.657949924468994 234.26736450195312 161.84193420410156 238.0845947265625 21.866939067840576 161.55757141113281 199.5972900390625 34.542854309082031 15.371219635009764 151.89231872558594 200.87557983398438 108.97891998291016 741.76695251464844 28.905209064483643 233.18353271484375 35.378011226654053 45.875724792480469 186.98551940917969 146.72479248046875 181.26385498046875 541.7777099609375 448.67039489746094 55.973884582519531 25 96.887943744659424 26.845787048339844 160.66566467285156 287.73066711425781 193.74862670898438 295.25004577636719 626.44769287109375 315.40652465820312 440.5611572265625 1038.0865262746811 175.93646240234375 156.8095703125 561.32077026367188 281.56166076660156 305.21998596191406 570.72836303710938 143.84988403320312
leaf_count=14 15 98 82 82 9 83 85 9 5 91 96 24 448 10 88 13 22 87 81 89 343 263 12 5 32 9 84 179 94 187 371 178 270 659 91 88 353 173 186 362 90
internal_value=-0.00284624 -0.00307187 -0.00279006 -0.00620217 0.00640735 -0.00294508 -0.000426726 0.00878097 0.0103301 -0.00283082 -0.00380035 -0.00758164 -0.00287633 0.00805485 -0.00522796 0.00460329 0.00527347 -0.0011491 -0.00233022 -0.00362221 -0.00282533 -0.00304806 -0.0080155 -0.00844926 -0.00697306 0.00373674 -0.00214482 -0.0028639 -0.00378099 -0.00274496 -0.00298815 -0.00318073 -0.00289687 -0.00283502 -0.00344297 -0.00251894 -0.00277601 -0.00268745 -0.00288012 -0.00285223 -0.00287072
internal_weight=9949 9712.55 8910.54 802.007 236.444 8362.12 548.425 100.686 66.1434 7376.03 986.092 330.739 6759.94 50.7721 471.268 135.757 73.5337 348.827 616.092 751.825 5207.85 1552.08 189.953 80.9739 140.786 62.2238 307.39 3527.94 394.624 1679.91 1075.12 476.964 1631.4 1896.55 357.2 308.702 1103.1 576.812 889.631 858.459 449.07
internal_count=5560 5468 5211 257 92 4957 254 33 24 4489 468 87 4145 19 170 59 37 169 344 370 3250 895 41 17 46 22 165 2194 190 1056 634 261 994 1200 180 179 696 360 546 541 276
is_linear=0
shrinkage=1


Tree=1
num_leaves=40
num_cat=0
split_feature=36 36 36 36 1 36 36 68 63 36 36 13 0 36 36 0 2 36 36 36 36 36 69 88 47 36 36 36 36 36 36 36 36 36 36 36 36 36 36
split_gain=49.9445 20.5868 7.84551 2.56063 2.28827 1.96489 1.16926 0.996208 0.904748 0.405004 0.231386 0.217441 0.162085 0.142557 0.126957 0.0891616 0.264852 0.0814867 0.0488578 0.0471521 0.0384723 0.0285517 0.0132114 0.0470276 0.0126378 0.00929803 0.00765545 0.00740285 0.00725883 0.00258374 0.00151259 0.000910091 0.000835997 0.000464759 0.000453405 0.000450598 0.000102459 5.59783e-05 4.72701e-05
threshold=0.29216632246971136 -0.0864104889333248 0.049788387492299087 -0.15244187414646146 1.8343391418457033 -0.024494539014995095 0.13136333972215655 316.42364501953131 0.2563189566135407 0.01028187992051244 -0.06197423301637172 1.0000000180025095e-35 1382.888366699219 -0.0061475576367229215 -0.11310619860887526 701.51757812500011 195.86439514160159 0.086063664406538024 0.02208056673407555 -0.037562483921647065 0.00022199365048436451 -0.013558749575167893 1.4351392984390261 1.4323486089706423 0.021754029206931595 0.032303426414728172 -0.046319371089339249 0.0040632793679833421 -0.0028540125349536534 -0.0087968735024332983 -0.019795672968029972 -0.0014121539425104854 -0.0042752027511596671 0.0017476144130341711 -0.031387809664010995 0.014498212840408089 0.006170867010951043 -0.0023581070126965638 -0.0033747316338121887
decision_type=2 2 2 2 2 2 2 2 2 2 2 2 2 2 2 2 2 2 2 2 2 2 2 2 2 2 2 2 2 2 2 2 2 2 2 2 2 2 2
left_child=1 3 5 12 15 10 17 8 11 13 -3 -6 24 21 -5 16 -2 -4 35 26 28 30 -14 -24 -1 -20 -12 33 32 -23 -7 37 -15 -22 -21 -11 -29 -30 -34
right_child=4 2 6 14 7 9 -8 -9 -10 18 19 -13 22 20 -16 -17 -18 -19 25 34 27 29 23 -25 -26 -27 -28 36 31 -31 -32 -33 38 -35 -36 -37 -38 -39 -40
leaf_value=-0.0045714080142399078 0.006075277516376815 -0.0014644514710204543 0.0013307383881295302 -0.0026527175956837733 0.0075984659464838648 -0.00037306622362850332 0.0036202809210851413 0.0083429125889343154 0.01638811462436586 0.000285491794386147 -0.0010015610142612731 0.011938567707777983 -0.0046940158210450299 -4.400279465739554e-05 -0.0019514135257377822 0.006477722676045761 0.009034678778309135 0.001986227288079726 0.0005687512612033988 -0.00062015924008543939 7.3030333301368137e-05 -0.00015472635926821202 -0.006118956429911818 -0.0046424554002684297 -0.0037392496227464712 0.00083341118993447651 -0.00077136647172983965 0.00015158214463988361 1.4368539882895005e-06 -8.5079795961170784e-05 -0.00026476865498170583 4.3622066861127878e-05 -1.6396132616863078e-05 0.00010758270043701046 -0.00049263664078341447 0.00039479836946495047 0.00020515121379852515 1.7525232575540158e-05 -1.3643690253511339e-06
leaf_weight=43.898112773895264 27.65793514251709 234.26736450195312 161.84194946289062 238.0845947265625 11.832182645797728 161.55757141113281 199.5972900390625 34.542854309082031 23.451272964477539 151.89237976074219 200.87556457519531 30.859912157058716 108.97891998291016 741.76695251464844 233.18353271484375 62.223797798156738 45.875724792480469 186.98550415039062 146.72477722167969 181.26385498046875 682.278564453125 448.67041015625 42.833805084228516 38.140079498291016 96.887943744659424 160.66566467285156 193.74862670898438 295.25004577636719 273.48033142089844 626.44770812988281 315.40652465820312 1033.0052274465561 440.56120300292969 561.32075500488281 175.93655395507812 156.80953979492188 281.56166076660156 593.40885925292969 305.22001647949219
leaf_count=14 15 98 82 82 4 83 85 9 9 91 96 11 24 448 88 22 22 87 81 89 432 263 9 8 32 84 94 187 171 371 178 656 270 353 91 88 173 374 186
internal_value=2.40242e-05 -0.000197189 7.90209e-05 -0.00326535 0.00909642 -7.29045e-05 0.00239529 0.0114242 0.0129437 3.90836e-05 -0.000911191 0.0108607 -0.00461769 -5.5267e-06 -0.00231027 0.00732704 0.00798363 0.00168731 0.000529789 -0.000736608 4.44625e-05 -0.000173865 -0.00504292 -0.00546853 -0.00402106 0.000711459 -0.000892192 0.000118623 4.30204e-06 -0.000115133 -0.000303898 3.04598e-05 -2.84336e-05 8.94669e-05 -0.000560921 0.000344798 0.000179618 1.36064e-05 -1.15892e-05
internal_weight=9949 9712.55 8910.54 802.007 236.444 8362.12 548.425 100.686 66.1434 7376.03 986.092 42.6921 330.739 6759.94 471.268 135.757 73.5337 348.827 616.092 751.825 5207.85 1552.08 189.953 80.9739 140.786 307.39 394.624 1820.41 3387.44 1075.12 476.964 1899.89 1487.55 1243.6 357.2 308.702 576.812 866.889 745.781
internal_count=5560 5468 5211 257 92 4957 254 33 24 4489 468 15 87 4145 170 59 37 169 344 370 3250 895 41 17 46 165 190 1145 2105 634 261 1201 904 785 180 179 360 545 456
is_linear=0
shrinkage=0.02


Tree=2
num_leaves=41
num_cat=0
split_feature=36 36 36 36 1 36 36 68 62 36 36 34 25 36 36 38 2 36 36 36 36 36 61 69 88 47 36 36 36 36 36 36 36 36 36 36 36 36 36 36
split_gain=48.0016 19.7777 7.5361 2.46071 2.20028 1.88764 1.12275 0.957353 2.13908 0.389161 0.222097 0.155318 0.139544 0.136991 0.121714 0.0851945 0.25348 0.0781007 0.046877 0.0452146 0.0397184 0.0237979 0.013098 0.0123797 0.0455764 0.0118148 0.00886114 0.00799498 0.00743846 0.00726565 0.00174988 0.00142366 0.000918856 0.000875975 0.000681089 0.000399075 0.000380628 8.08466e-05 7.5988e-05 2.81789e-05
threshold=0.29216632246971136 -0.0864104889333248 0.049788387492299087 -0.15244187414646146 1.8343391418457033 -0.024494539014995095 0.13136333972215655 316.42364501953131 207.26910400390628 0.01028187992051244 -0.06197423301637172 7.2326524257659921 1.9850687980651858 -0.0066513938363641492 -0.11310619860887526 1.0792889595031741 195.86439514160159 0.086063664406538024 0.02208056673407555 -0.037562483921647065 1.0000000180025095e-35 -0.013558749575167893 195.86441040039065 1.4351392984390261 2.0954265594482426 0.021754029206931595 0.032303426414728172 0.0040632793679833421 -0.0031018932349979873 -0.046319371089339249 -0.010062739718705414 -0.019795672968029972 -0.0016650555189698932 -0.0046165031380951396 0.0017476144130341711 0.014498212840408089 -0.031387809664010995 0.006170867010951043 -0.0026018372736871238 -0.0036346192937344308
decision_type=2 2 2 2 2 2 2 2 2 2 2 2 2 2 2 2 2 2 2 2 2 2 2 2 2 2 2 2 2 2 2 2 2 2 2 2 2 2 2 2
left_child=1 3 5 11 15 10 17 8 12 13 -3 25 -6 21 -5 16 -2 -4 35 29 28 31 -17 -13 -25 -1 -20 34 33 -12 -23 -7 38 -15 -22 -11 -21 -29 -30 -35
right_child=4 2 6 14 7 9 -8 -9 -10 18 19 23 -14 20 -16 22 -18 -19 26 36 27 30 -24 24 -26 -27 -28 37 32 -31 -32 -33 -34 39 -36 -37 -38 -39 -40 -41
leaf_value=-0.0044810091637068833 0.0059559275774351819 -0.0014352246831053795 0.0013042048852343266 -0.0025997747744434742 0.012179574190169004 -0.00036562794592473274 0.0035480565331683749 0.0081784351305001345 0.019380332624692197 0.00027980103079085542 -0.00098157948515577081 -0.0046005652692848124 0.0089695688840580115 -5.0721725765009144e-05 -0.0019124676952177199 0.0056079579229815595 0.0088559390473959363 0.0019466094703951672 0.0005574146307337132 -0.00060779007239542926 6.9055359760345438e-05 -0.00016652235164490664 0.0071690586945671181 -0.0058033883928239717 -0.0042360533545998972 -0.0036648485293243735 0.00081679480422171551 0.00014855560766860446 0 -0.00075597883597052363 -9.7587391838556433e-05 -0.0002594816906765846 3.808662161877213e-05 -2.1938370649469259e-05 0.00010543296551040655 0.00038692732097960711 -0.00048281169043614259 0.00020105548031364783 1.2668527893863122e-05 -6.1039431533178426e-06
leaf_weight=43.898112773895264 27.657942295074463 234.26736450195312 161.84197998046875 238.08460998535156 21.866931438446045 161.55755615234375 199.5972900390625 34.542854309082031 15.371219635009764 151.89236450195312 200.87559509277344 108.97891998291016 28.905209064483643 743.9903564453125 233.18351745605469 35.378011226654053 45.875724792480469 186.9854736328125 146.72480773925781 181.26388549804688 833.02210998535156 290.6597900390625 26.845787048339844 55.973884582519531 25 96.887943744659424 160.6656494140625 295.25004577636719 300.27578735351562 193.74864196777344 630.9798583984375 315.40652465820312 1034.884362578392 451.30628967285156 561.32072448730469 156.8095703125 175.93644714355469 281.5616455078125 570.416748046875 289.30403137207031
leaf_count=14 15 98 82 82 9 83 85 9 5 91 96 24 10 447 88 13 22 87 81 89 527 169 9 12 5 32 84 187 184 94 374 178 658 275 353 88 91 173 358 179
internal_value=2.35877e-05 -0.000193279 7.74476e-05 -0.00320055 0.00891777 -7.14496e-05 0.00234758 0.0112007 0.0126909 3.83123e-05 -0.000893092 -0.00452629 0.0104769 -5.41377e-06 -0.0022642 0.00718238 0.00782627 0.00165372 0.000519324 -0.000721994 4.04217e-05 -0.000181783 0.0063492 -0.00494308 -0.00536073 -0.00394137 0.000697341 0.000111804 -7.97663e-07 -0.000874444 -0.000120491 -0.000297875 2.50452e-05 -3.46392e-05 8.44494e-05 0.000337989 -0.000549789 0.000176067 8.38364e-06 -1.71106e-05
internal_weight=9949 9712.55 8910.54 802.007 236.444 8362.12 548.425 100.686 66.1434 7376.03 986.092 330.739 50.7721 6759.94 471.268 135.757 73.5337 348.827 616.092 751.825 5361.33 1398.6 62.2238 189.953 80.9739 140.786 307.39 1971.15 3390.18 394.624 921.64 476.964 1905.58 1484.6 1394.34 308.702 357.2 576.812 870.693 740.61
internal_count=5560 5468 5211 257 92 4957 254 33 24 4489 468 87 19 4145 170 59 37 169 344 370 3341 804 22 41 17 46 165 1240 2101 190 543 261 1200 901 880 179 180 360 542 454
is_linear=0
shrinkage=0.02


Tree=3
num_leaves=42
num_cat=0
split_feature=36 36 36 36 36 36 89 67 60 15 36 46 36 35 36 36 36 69 79 36 36 36 36 69 88 47 36 36 36 36 36 36 36 36 36 36 36 36 36 36 36
split_gain=46.1405 19.0004 7.23891 2.36465 1.81342 1.07809 1.02194 0.721567 0.58629 0.388996 0.373943 0.37268 0.213179 0.148814 0.131692 0.116681 0.0748515 0.0668143 0.0633615 0.0449756 0.0433554 0.0332985 0.0293727 0.0115744 0.0435559 0.0110292 0.00844283 0.00708905 0.00689302 0.00510873 0.00309223 0.00138499 0.000889571 0.000812453 0.00035032 0.000311857 7.81524e-05 6.04339e-05 2.23215e-05 6.06493e-06 1.13545e-06
threshold=0.29216632246971136 -0.0864104889333248 0.049788387492299087 -0.15244187414646146 -0.024494539014995095 0.13136333972215655 0.0345944780856371 1.1267338395118716 0.015223957598209383 0.010829383973032238 0.01028187992051244 0.091734327375888838 -0.06197423301637172 52.311262130737312 -0.0057474868372082702 -0.11310619860887526 0.086063664406538024 1.1588547229766848 0.37365256249904638 0.02208056673407555 -0.037562483921647065 0.00077813223470002424 -0.013558749575167893 1.4351392984390261 1.4323486089706423 0.021754029206931595 0.032303426414728172 -0.0023581070126965638 -0.046319371089339249 0.0040632793679833421 -0.0087968735024332983 -0.016262003220617768 -0.0039703806396573773 -0.00094599218573421229 0.014498212840408089 -0.031387809664010995 -0.0031018932349979873 0.006170867010951043 0.00216438458301127 -0.0021081343293189998 -0.0028540125349536534
decision_type=2 2 2 2 2 2 2 2 2 2 2 2 2 2 2 2 2 2 2 2 2 2 2 2 2 2 2 2 2 2 2 2 2 2 2 2 2 2 2 2 2
left_child=1 3 4 13 12 16 -2 9 -9 -8 14 17 -3 25 22 -5 -4 -10 -11 34 28 27 31 -15 -25 -1 -21 32 -14 38 -24 -6 -16 39 -12 -22 -34 -31 -23 -29 -38
right_child=6 2 5 15 10 -7 7 8 11 18 19 -13 20 23 21 -17 -18 -19 -20 26 35 29 30 24 -26 -27 -28 33 -30 37 -32 -33 36 -35 -36 -37 40 -39 -40 -41 -42
leaf_value=-0.0043923959046639031 0.0066855069005457082 -0.0014065815535112636 0.001278200693244876 -0.0025478872250378972 -0.00032485936550193058 0.0034772726371509956 0.010046371429879167 0.013588756542421159 0.010619833847761769 0.0053271520269479343 0.00027422240976811789 0.013062131873279226 -0.00096199702970672138 -0.0045089733716349202 -3.5259062600812184e-05 -0.0018743014219036896 0.0019077806715200149 0.0079087586811635042 0.0077838034914730235 0.00054630431037949441 -0.00059566776222148333 7.9145771765132367e-05 -0.00014879356300404327 -0.0058832598648978045 -0.0044565230115413109 -0.0035919280847304105 0.00080050959312079589 5.2379913235654051e-06 -0.00074089836254950597 0.00014558950768163182 -7.7367817308905551e-05 -0.00021973556172771047 -1.0061019305300687e-05 5.0629623536654919e-05 0.0003792135169320545 -0.00047318210856872687 0 0.0001970414796994546 0.00010807699380501464 2.3766164057878274e-05 1.2882756753917919e-06
leaf_weight=43.898128032684326 75.658554077148438 234.26736450195312 161.84194946289062 238.08462524414062 317.03768920898438 199.5972900390625 22.966364145278931 27.722945809364319 14.458695292472838 24.776323795318604 151.89234924316406 13.542181491851805 200.87557983398438 108.97893524169922 741.39353942871094 233.1834716796875 186.98550415039062 42.366199493408203 14.952415704727171 146.72479248046875 181.26387023925781 544.17025756835938 448.67042541503906 42.833805084228516 38.140079498291016 96.887943744659424 160.6656494140625 158.10009765625 193.74862670898438 295.25004577636719 773.95269775390625 159.92642211914062 442.22364807128906 1027.3319944143295 156.8095703125 175.93650817871094 156.426025390625 281.56166076660156 416.35287475585938 724.05809020996094 273.48037719726562
leaf_count=14 36 98 82 82 170 85 9 9 5 8 91 4 96 24 450 88 87 15 6 81 89 344 263 9 8 32 84 98 94 187 459 91 272 652 88 91 94 173 262 459 171
internal_value=2.31716e-05 -0.000189447 7.59035e-05 -0.00313703 -7.00259e-05 0.00230082 0.00874323 0.00968158 0.0108308 0.00779619 3.7554e-05 0.00964197 -0.000875355 -0.0044367 -5.3058e-06 -0.00221906 0.00162079 0.00870263 0.00636185 0.000509068 -0.000707672 4.57015e-05 -0.000157732 -0.0048452 -0.00525499 -0.00386326 0.000683503 1.14919e-05 -0.00085705 0.000123418 -0.000104447 -0.000291973 -1.89573e-05 3.77434e-05 0.000331315 -0.00053888 -3.94109e-06 0.000172586 9.27767e-05 2.15833e-05 3.51621e-08
internal_weight=9949 9712.55 8910.54 802.007 8362.12 548.425 236.444 160.785 98.09 62.6951 7376.03 70.3671 986.092 330.739 6759.94 471.268 348.827 56.8249 39.7287 616.092 751.825 5060.35 1699.59 189.953 80.9739 140.786 307.39 3523.01 394.624 1537.33 1222.62 476.964 1613.52 1909.49 308.702 357.2 872.13 576.812 960.523 882.158 429.906
internal_count=5560 5468 5211 257 4957 254 92 56 33 23 4489 24 468 87 4145 170 169 20 14 344 370 3162 983 41 17 46 165 2196 190 966 722 261 987 1209 179 180 537 360 606 557 265
is_linear=0
shrinkage=0.02


Tree=4
num_leaves=43
num_cat=0
split_feature=36 36 36 36 1 36 36 69 67 36 38 36 0 36 36 78 38 2 36 36 36 36 36 61 69 8 47 36 36 36 36 36 36 36 36 36 36 36 36 36 36 36
split_gain=44.3517 18.2538 6.95341 2.27238 2.05202 1.74215 1.0352 0.589398 1.60614 0.359313 0.285335 0.204616 0.142582 0.126599 0.111854 0.107143 0.0808803 0.238729 0.0717338 0.0431503 0.0415708 0.0341904 0.0252444 0.0110649 0.0108148 0.0419669 0.0102806 0.00804241 0.0071771 0.00653675 0.00572281 0.00226994 0.00131343 0.000960025 0.000767772 0.000304123 0.000246838 0.000182166 9.23603e-05 4.11696e-05 1.98846e-05 1.06322e-06
threshold=0.29216632246971136 -0.0864104889333248 0.049788387492299087 -0.15244187414646146 1.8343391418457033 -0.024494539014995095 0.13136333972215655 1.4351392984390261 1.2844211459159853 0.01028187992051244 1.3748044371604922 -0.06197423301637172 1382.888366699219 -0.0061475576367229215 -0.11310619860887526 0.36060398817062383 1.0792889595031741 195.86439514160159 0.086063664406538024 0.02208056673407555 -0.037562483921647065 0.00047256327525246894 -0.013558749575167893 195.86441040039065 1.4351392984390261 0.25904724001884466 0.021754029206931595 0.032303426414728172 -0.0026018372736871238 -0.046319371089339249 0.0040632793679833421 -0.0087968735024332983 -0.019795672968029972 -0.0042752027511596671 -0.0011818038183264432 0.014498212840408089 -0.031387809664010995 0.00216438458301127 -0.0033747316338121887 0.006170867010951043 -0.0021081343293189998 -0.0028540125349536534
decision_type=2 2 2 2 2 2 2 2 2 2 2 2 2 2 2 2 2 2 2 2 2 2 2 2 2 2 2 2 2 2 2 2 2 2 2 2 2 2 2 2 2 2
left_child=1 3 5 12 16 11 18 8 10 13 -6 -3 26 22 -5 -12 17 -2 -4 35 29 28 32 -18 -14 -26 -1 -21 33 -13 37 -24 -7 -15 40 -11 -22 -23 -35 -32 -30 -40
right_child=4 2 6 14 7 9 -8 -9 -10 19 15 20 24 21 -16 -17 23 -19 -20 27 36 30 31 -25 25 -27 -28 -29 34 -31 39 -33 -34 38 -36 -37 -38 -39 41 -41 -42 -43
leaf_value=-0.0043055426266451965 0.0057075875731864073 -0.0013785095706315611 0.0012527150892756018 -0.0024970373591356957 0.012530173564101488 -0.00035186077558670153 0.0034079006367141963 0.0080304588023629945 0.016979777282850779 0.00026875535436000604 0.0066961853358353 -0.00094280435087347068 -0.0044192057755392984 -4.1354826094843713e-05 -0.0018368936529734243 0.0098903486500943102 0.0053751166491672695 0.0085193202799149336 0.0018697263272898154 0.00053541536227876539 -0.00058378717246371063 7.4832000751221233e-05 -0.00014582102909008884 0.0068741497215469719 -0.0055783639235653997 -0.0040656108108221315 -0.0035204581585752386 0.00078454891871487581 6.0884935741561285e-06 -0.00072611839270124347 0.00014268264158629859 -8.0112344910202702e-05 -0.00024887774715322476 -1.53620940700852e-05 4.5132276988153043e-05 0.00037165337027553105 -0.00046374507867546539 0.00010591805879192231 -1.1794497270215718e-06 0.00019310766991034446 2.069102765784149e-05 0
leaf_weight=43.898112773895264 27.657919406890869 234.26736450195312 161.84199523925781 238.08460998535156 15.183343648910521 161.55757141113281 199.5972900390625 30.081899642944336 19.175779342651367 151.89239501953125 17.683582782745361 200.87557983398438 108.97891998291016 741.7669677734375 233.18351745605469 18.561616659164429 35.378011226654053 45.875740051269531 186.98548889160156 146.72477722167969 181.26387023925781 686.74562072753906 448.67037963867188 26.845787048339844 55.973884582519531 25 96.887943744659424 160.66567993164062 287.73065185546875 193.74862670898438 295.25009155273438 626.44775390625 315.40652465820312 440.56124877929688 1038.086251616478 156.80955505371094 175.9365234375 416.3529052734375 305.2200927734375 281.56161499023438 570.72836303710938 143.84971618652344
leaf_count=14 15 98 82 82 7 83 85 9 7 91 5 96 24 448 88 5 13 22 87 81 89 434 263 9 12 5 32 84 179 94 187 371 178 270 659 88 91 262 186 173 362 90
internal_value=2.27678e-05 -0.000185686 7.43962e-05 -0.00307478 0.00857212 -6.86243e-05 0.002255 0.0107769 0.0118684 3.6818e-05 0.00979811 -0.000857971 -0.00434889 -5.19211e-06 -0.00217481 0.00847149 0.006896 0.00752095 0.00158852 0.000499016 -0.000693634 4.19072e-05 -0.000163836 0.00608744 -0.00474929 -0.0051514 -0.0037867 0.000669942 6.24092e-06 -0.000840002 0.00011619 -0.000108519 -0.000286187 -2.41603e-05 3.29185e-05 0.000324774 -0.000528188 8.75139e-05 -8.68511e-06 0.000169175 1.69673e-05 0
internal_weight=9949 9712.55 8910.54 802.007 236.444 8362.12 548.425 100.686 70.6043 7376.03 51.4285 986.092 330.739 6759.94 471.268 36.2452 135.757 73.5337 348.827 616.092 751.825 5207.85 1552.08 62.2238 189.953 80.9739 140.786 307.39 3527.94 394.624 1679.91 1075.12 476.964 1631.4 1896.55 308.702 357.2 1103.1 889.631 576.812 858.459 449.07
internal_count=5560 5468 5211 257 92 4957 254 33 24 4489 17 468 87 4145 170 10 59 37 169 344 370 3250 895 22 41 17 46 165 2194 190 1056 634 261 994 1200 179 180 696 546 360 541 276
is_linear=0
shrinkage=0.02


Tree=5
num_leaves=207
num_cat=3
split_feature=89 49 37 49 17 63 37 60 89 48 59 1 89 89 53 59 39 39 26 62 1 1 35 74 63 89 55 80 89 44 0 0 42 77 10 61 7 89 46 46 93 5 8 89 89 47 83 89 89 1 56 8 89 4 1 74 89 78 89 6 46 4 59 87 47 74 74 68 79 1 83 47 77 1 89 13 6 68 47 69 61 1 78 8 78 62 11 51 39 13 48 11 59 1 72 69 61 80 86 89 89 89 89 72 0 74 63 63 59 74 90 59 62 0 80 1 59 59 74 8 80 61 1 1 89 74 89 89 46 89 89 48 1 69 89 14 17 1 26 9 74 77 63 93 61 69 52 90 89 61 1 89 62 6 78 9 63 93 7 89 89 86 60 41 9 69 62 26 88 77 86 61 89 89 25 4 4 81 90 93 74 89 9 63 89 89 91 89 42 8 74 63 72 74 70 87 59 72 53 89 80 9 74 74 61 70
split_gain=31.0635 11.2508 4.55285 3.77654 3.42299 2.56933 1.96448 1.39158 0.961978 0.949687 1.00684 0.891944 0.873552 0.70074 0.58627 0.426688 0.372454 0.365014 0.315902 0.311755 0.248151 0.217385 0.257915 0.23061 0.212462 0.210113 0.186943 0.181377 0.169359 0.165787 0.13172 0.122462 0.114487 0.108344 0.106881 0.106645 0.106351 0.103285 0.0864333 0.0850562 0.0833521 0.100469 0.0830345 0.0796437 0.0780551 0.0646735 0.0641299 0.0636405 0.0588049 0.0664831 0.0551208 0.0550817 0.0531757 0.0909476 0.0487152 0.0482478 0.047719 0.0406928 0.0381269 0.0345657 0.0330722 0.0322742 0.0303403 0.0300605 0.0289418 0.0243296 0.0216997 0.0255313 0.0204168 0.0203589 0.0199029 0.0283685 0.0184626 0.0184245 0.0168988 0.0160423 0.0156627 0.0154075 0.0151602 0.0147495 0.0142702 0.0141192 0.0145256 0.0140824 0.01301 0.0129666 0.0120924 0.0114376 0.0110977 0.00999218 0.00900567 0.00851749 0.0083093 0.00808041 0.007602 0.00729116 0.00706369 0.00697195 0.00632834 0.00603949 0.00595132 0.00591071 0.00586012 0.00582956 0.00569485 0.00561396 0.00541301 0.00513905 0.00476475 0.0045947 0.00363414 0.00362358 0.00341251 0.00299619 0.00266382 0.00260144 0.00254002 0.00250474 0.00244158 0.00225669 0.00215724 0.00211309 0.00207566 0.00192223 0.00186818 0.001513 0.00141564 0.00130502 0.00114855 0.00114714 0.00298619 0.00113662 0.00134842 0.00110545 0.00109783 0.00101234 0.000954309 0.000949101 0.000933633 0.000906859 0.00083761 0.000778067 0.000660525 0.000577777 0.00057504 0.000557257 0.000478562 0.000499196 0.000445083 0.000442208 0.000377047 0.000331503 0.000280363 0.000263191 0.000260297 0.000249096 0.000244397 0.000220415 0.000296248 0.00017009 0.000157885 0.000126989 0.000122432 0.000115067 0.000114273 8.27679e-05 7.90883e-05 6.79579e-05 6.09366e-05 6.61607e-05 5.85515e-05 6.38975e-05 5.7284e-05 4.84958e-05 3.68096e-05 3.18766e-05 0.00202314 3.03286e-05 2.99878e-05 2.95926e-05 2.65964e-05 3.37662e-05 2.10758e-05 2.04518e-05 2.22239e-05 2.07437e-05 1.97009e-05 1.78575e-05 1.5003e-05 1.47627e-05 1.31253e-05 1.20795e-05 1.12558e-05 1.12554e-05 1.27261e-05 1.12287e-05 1.35968e-05 1.03191e-05 1.20251e-05 9.81726e-06 7.50701e-06 7.02205e-06 6.79194e-06 5.06925e-06 5.00517e-06 1.62693e-06
threshold=0.0345944780856371 6.9811275005340585 0 6.3595099449157724 1.5000000000000002 0.12342302873730661 1 0.015223957598209383 0.002900581457652152 0.020536812953650955 291.28640747070318 0.18320778757333758 -0.011696091853082178 -0.0067566628567874423 6.8176012039184579 17.109016418457035 1382.888366699219 627.29067993164074 2.0724644660949711 -196.0874328613281 -0.27117547392845148 -0.27117547392845148 38.858119964599616 -0.99271196126937855 -0.024799535982310768 -0.025536014698445793 6.8176012039184579 0.75007036328315746 0.00081237475387752067 576.96307373046886 912.79037475585949 1382.888366699219 1075.131774902344 0.088512923568487181 -0.63582900166511525 -95.313751220703111 0.26078386604785925 -0.0022882346529513593 0.019159595482051376 0.023023290559649471 0.0003613807493820787 0.14661017805337909 0.1340131685137749 -0.00029787466337438667 0.002900581457652152 0.015164311509579422 0.012777592521160843 0.00081237475387752067 -0.00087141894618980576 -0.07851101458072661 1064.6678466796877 0.14194932579994204 0.011188823729753496 0.082593303173780455 -0.36364342272281641 -0.73829901218414296 -0.0004733820969704538 0.42764207720756536 0.0015393485082313421 0.18201046437025073 0.064649064093828215 0.015164311509579422 4.2157416343688974 0.025607309304177765 0.020536812953650955 -0.90878397226333607 -0.92910701036453236 21.986129760742191 0.11707884445786478 -0.59013304114341725 0.04026222042739392 0.10455069690942766 0.33844311535358435 0.74959838390350353 0.0072521157562732705 1.7085984945297243 0.049645982682704932 164.24279785156253 0.024685408920049671 0.9876546859741212 -18.554824829101559 0.3017404973506928 0.64676585793495189 0.1790752783417702 0.1185724548995495 105.36364746093751 2.0957989692687993 5.9142243862152108 398.33764648437506 0.19890048354864123 0.011679926887154581 2.3574733734130864 73.486446380615249 -0.72930303215980519 35.500000000000007 0.87485465407371532 -25.240783691406246 0.51595804095268261 15.209739208221437 -0.0001376506043015979 0.00019709178013727072 0.004055608995258809 0.00011521610940690154 27.500000000000004 627.29067993164074 -0.62538740038871754 -0.01179215870797634 -0.12003007531166075 1.5087722539901736 -0.96227341890335072 -0.04590767249464988 442.45178222656256 -16.570053100585934 352.81025695800787 0.047845689579844482 -0.61679303646087635 139.25799560546878 1.9158008098602297 -0.30900555849075312 0.014500587247312071 0.34083488583564764 1.4208679199218752 -0.039453227072954171 -0.49846680462360377 0.0053560961969196805 -0.80389818549156178 0.00014609938079956922 -0.0004733820969704538 0.0064875229727476844 -0.00010098655911860986 2.962071084766649e-05 0.00830600503832102 -0.72930303215980519 1.0330845117568972 0.00014609938079956922 0.015666865743696693 1.5000000000000002 -1.0938256382942197 2.0331922769546513 0.00054804887622594844 -0.20930689573287961 4.467530197871384e-05 0.0040550921112298974 4.2561145164654597e-05 -1.4604339599609373 0.99392658472061168 6.130164861679078 -0.090588185936212526 4.8568652346148162e-05 -3.0455169677734371 -0.49846680462360377 -5.7981758345704284e-06 -2.1262359619140621 0.0040536122396588334 1.9089111685752871 0.019288485869765285 -0.0023629280040040608 0.00080860950401984166 0.020332444459199909 0.00044767861254513269 -1.2925609553349203e-05 -2.6160814762115474 0.011646653991192581 267.31764221191412 2.1955845113552645e-05 0.98271289467811596 -0.67745971679687489 1.8446925878524782 0.007356831571087242 0.00011169410208822229 -2.6335313320159908 0.62940979003906261 -5.4732625358155922e-05 1.3019628568144983e-05 1.9011429548263552 0.038345193490386016 0.023023290559649471 -0.0041322021279484025 -0.0053406949155032626 0.00075580761767923843 0.49001051485538488 1.0000000180025095e-35 8.449987217318268e-05 -0.0028594670584425326 4.8568652346148162e-05 -8.2784239907596192e-07 2 -8.9066124928649498e-06 272.62173461914068 0.072379399091005339 0.95989713072776806 0.0026493548648431902 1.0000000180025095e-35 0.57727023959159862 0.97976583242416393 -0.0060127652250230304 0.91793689131736766 3.5000000000000004 6.130164861679078 2.2831750356999695e-05 1.158383369445801 4.8130792225571138e-15 0.95989713072776806 -1.0000000180025095e-35 0.39862060546875006 0.9202999770641328
decision_type=2 2 9 2 2 2 9 2 2 2 2 2 2 2 2 2 2 2 2 2 2 2 2 2 2 2 2 2 2 2 2 2 2 2 2 2 2 2 2 2 2 2 2 2 2 2 2 2 2 2 2 2 2 2 2 2 2 2 2 2 2 2 2 2 2 2 2 2 2 2 2 2 2 2 2 2 2 2 2 2 2 2 2 2 2 2 2 2 2 2 2 2 2 2 2 2 2 2 2 2 2 2 2 2 2 2 2 2 2 2 2 2 2 2 2 2 2 2 2 2 2 2 2 2 2 2 2 2 2 2 2 2 2 2 2 2 2 2 2 2 2 2 2 2 2 2 2 2 2 2 2 2 2 2 2 2 2 2 2 2 2 2 2 2 2 2 2 2 2 2 2 2 2 2 2 2 2 2 2 2 2 2 2 2 2 2 1 2 2 2 2 2 2 2 2 2 2 2 2 2 2 2 2 2 2 2
left_child=1 2 4 15 28 9 57 -7 13 10 26 45 16 20 18 62 39 59 29 42 25 37 23 -23 32 -6 -2 35 43 -9 -11 46 76 -32 -18 95 52 51 111 -8 107 70 -5 54 60 -10 -29 56 49 89 75 69 86 -54 113 90 73 -3 81 61 80 -13 109 -25 -26 108 67 -30 96 -15 -42 -72 -41 78 84 91 -14 -44 116 106 103 82 85 -77 -49 105 -19 88 99 -24 -27 -48 -62 -57 128 110 -46 -75 -86 115 136 -68 121 -17 -76 -50 134 -36 -45 -4 -21 -34 138 114 -1 -39 -37 142 -105 -104 -70 152 -96 151 -98 126 153 -89 -58 -125 135 146 162 137 150 -131 143 -102 -82 144 -136 -116 148 -81 197 167 178 -148 156 -127 -64 -110 -67 -108 -152 -128 180 158 -147 165 195 -144 -133 -163 -150 205 -162 177 -165 -170 189 183 -123 174 186 176 -134 -141 -114 -179 187 188 202 -172 185 -185 191 -111 -182 190 -146 -168 -190 -194 -195 -158 -197 -119 -199 201 -196 -189 203 -173 -154 -151
right_child=5 6 3 19 8 7 12 14 11 30 -12 17 24 21 -16 44 34 36 -20 27 -22 22 48 63 64 55 -28 31 66 -31 33 -33 38 -35 40 47 -38 87 -40 72 41 -43 77 65 68 -47 50 74 58 -51 -52 -53 53 -55 -56 93 94 -59 -60 -61 92 -63 79 -65 -66 102 101 -69 120 -71 71 -73 -74 97 104 83 -78 -79 -80 100 112 -83 -84 -85 98 -87 -88 127 -90 -91 -92 -93 -94 -95 122 -97 124 -99 -100 -101 133 -103 119 118 -106 -107 125 -109 123 117 -112 -113 131 -115 141 -117 -118 139 -120 -121 -122 172 -124 129 -126 149 155 -129 -130 130 -132 132 175 -135 140 -137 -138 -139 -140 145 -142 -143 161 -145 170 157 147 -149 164 159 154 -153 204 -155 -156 -157 160 -159 -160 -161 166 163 -164 168 -166 -167 173 -169 169 -171 171 182 -174 -175 -176 -177 -178 179 -180 -181 181 -183 -184 184 -186 -187 -188 199 192 -191 -192 -193 193 194 200 196 -198 198 -200 -201 -202 -203 -204 -205 -206 -207
leaf_value=0.0001215993076986493 0.010590603309697348 0.0021878404463257731 -0.00024197768687568281 -0.0039380630219333782 0.004533055709074264 0.013194419154198635 -0.0016046146513785671 0.0099040987084121988 0.005120824761350575 0.0050033859021954312 0.0034192805278004247 0.0055534845961404513 -0.0022530621415125349 0.0010536653318419429 0.011719020033525471 -0.00095922178966958808 -0.0055267456171795761 0.0010343946760782432 0.005447997004746321 -0.00177496269329564 0.0057146844712759959 0.0010142890226706623 0.00087179473509391397 0.0032483782445407211 -0.0012565038936210246 0.0019127292815059925 0.0069043480168761544 -0.00051404406771640015 0.0023025426088433896 0.0062000321830596537 0.0040437239064511346 -0.003804335933490497 -0.0026542612133578008 0.0020424370169891772 -0.004049259479504891 -0.00067382414976766458 0.00064353350377311161 0.00030814867688873853 -0.0009481173070874238 -0.0023696107040182823 -0.0033930961452207941 -0.0025397188074571487 -0.0016568421543596379 0.00013211564743219301 -0.00089252190266400242 0.0084418149756781673 -0.0018943545403169388 -0.000730897816112847 0.0011645363616867262 0.0031972536153308606 -0.00047001975065838957 0.00066209133756622829 0.0038378318936027958 0.0017480711450511223 0.0016131012048516424 0.0011053723255533105 -1.5077328722667843e-05 0.00076110308386676039 0.001716984890134663 0.0026363768415257173 -0.00062373089070737468 0.0034977513157831304 0 0.0056422130429666303 -0.00014880831580514183 0.00015272937043281406 0.00052508141687095491 0.00096828334525638664 -0.00058179114419964421 0.001900537181719606 -0.004407917674992861 -0.0031641188518991793 -0.0034214660831456706 -0.00098510603897209825 -0.0013112227155946798 -0.0028649752119785667 -0.0034938044056017064 -0.0027309879329058483 -0.0018469025273768363 -1.1974678214841786e-05 -0.00056038347526387883 0.00018209185547119185 0.0002468920149614221 -0.0018160034684346477 -0.0011578239011650437 0.0016820208655749886 0.0019711272270432397 0.00030412981648103029 0.0012742671318939894 0.0018136935234563504 0.0030050442745992397 -0.0013868423412460554 -0.0014252752641411156 0.0018304501602940091 -0.00034574316927016443 -0.0022304726611491479 -0.00046924096569771228 -0.00040040322421759812 -0.0018082730337568812 9.1894156461999781e-05 0 0.001210717072728498 0.0006349818393190245 -0.00023549579089441404 -0.0020129827504311712 0.00055059621349610966 -0.00011643913879135876 -0.0055506299655987221 0.00024488439128413704 0 -0.00099149867174484069 -0.001743111006011912 -0.00016557360207212137 3.6949717306209637e-05 0.00018105922264167901 0.00066303758294070049 -0.0012797217230727013 0 -0.00057857966333853738 0.00023056583898095314 -0.0011124955742530286 0.00027004937233956572 -0.00074442288950849953 0.00060148814603301127 -0.00069329795604413866 -9.3443012063485674e-05 -0.00036406941655771965 9.6216986761602565e-05 -0.00030852714011272259 0.00032242863692287136 0.000524379965347335 0 -0.00035037451516421432 -0.00056791189518065372 -0.00035427298476359379 8.9731500929127753e-05 0 -0.00033957002124800919 -0.00011756967385209877 0 -0.00017279371503150839 0.00069612461352847727 0 -0.00020885508332946221 -1.9407796519528248e-05 -0.00014181704496494906 -7.6408320421344234e-05 -0.00028183196623205809 0 0 -0.00014398117187892196 0 9.1572399105019944e-05 0 0 -2.1909914677480333e-05 0 0 -2.6716791605310574e-05 -8.8319463386595919e-05 0 0 -0.00013686158323942505 0 -4.7549298868029346e-05 0 2.3797244667577993e-05 0 0 -8.8570342059224452e-05 0 0 0.00015707759507742648 0 0 -0.00053624414109311458 -3.1908115884768334e-05 -4.4197076909296325e-05 -4.0927917648806815e-06 0 0 0 0 0 0 1.4748737217618911e-05 0 0 0 0 0 0 0 0 -2.0808777179409195e-05 0 -2.4568493281148658e-05 -4.5787306729911477e-05 0 0 0 1.2929881324675702e-05 0 -3.8048692497500009e-05 0.00011762182551289635 -4.1804213474670709e-05
leaf_weight=11.037600278854368 19.451682567596436 16.440531492233276 35.135135412216187 23.731467247009277 16.20020866394043 27.985877752304077 29.167760848999023 19.561674952507019 11.764799833297731 18.951180458068848 22.69605827331543 13.811931610107424 15.824844837188719 30.769472599029541 14.4015736579895 18.433119177818298 26.985150098800659 18.582248449325562 37.268672347068787 30.466637372970581 9.9005585908889753 14.059177875518797 19.892420291900635 11.307440996170046 20.706821918487549 16.485593914985657 18.385924339294434 18.100355863571167 13.481130838394163 14.611989498138426 21.270268201828003 13.19515800476074 33.047973155975342 33.382352590560913 19.058990478515625 18.243440628051758 25.70220422744751 27.234371423721313 30.217874765396118 26.393899440765381 52.485190629959106 31.356767654418945 20.565353393554688 54.491119027137756 58.4427490234375 9.9032654762268049 162.03154397010803 31.49012303352356 16.919186234474179 11.556578159332274 13.41497230529785 58.598952889442444 18.548352241516113 22.52998161315918 21.65702748298645 20.589895367622375 19.116974353790283 22.877783536911011 22.238550186157227 10.630878448486326 21.815622925758362 15.720571517944334 17.160858750343323 9.2049021720886213 21.484243392944336 133.72924888134003 27.361154317855835 19.066679835319519 14.045002698898314 38.094114184379578 96.272323369979858 22.224761009216309 40.731351375579834 31.59807562828064 27.802927255630493 22.108050107955933 36.753148317337036 24.800583839416504 22.351508617401123 17.7013338804245 32.766491413116455 19.367275714874268 16.461789846420288 24.413681507110596 60.360514163970947 12.334183216094969 22.841683864593506 55.073354721069336 9.3140270709991437 13.533584117889403 24.982505321502686 41.562938213348389 14.287255525588987 49.931764721870422 22.552613258361816 35.503019571304321 92.535564303398132 22.492603778839111 18.174836397171021 19.5833420753479 7.84866178035736 12.534955143928526 11.082502484321592 26.824020624160767 28.543882131576538 29.289892315864567 10.922737717628481 22.616941690444946 40.328051090240479 27.313018679618835 13.028014183044432 15.631878376007078 84.687128901481628 10.399287104606627 7.6065298318862906 52.16928505897522 19.225469827651978 15.621049642562864 44.114319205284119 55.155942559242249 82.879557967185974 36.178093433380127 34.187244176864624 30.329967379570007 72.531427383422852 172.17429995536804 17.484009981155399 38.782558917999268 17.85878849029541 63.735217213630676 46.758840441703796 9.3887462615966815 97.378170251846313 26.811703205108643 35.469959139823914 24.266590356826782 13.484247922897337 63.625094056129456 8.9361128807067853 16.189868450164795 82.566051602363586 30.920015811920166 22.446000576019287 157.95980358123779 168.81107759475708 71.151426792144775 20.184072494506836 117.73828029632568 47.365139722824097 13.155405402183531 59.317026853561401 9.2272942066192609 934.8783506155014 18.968336462974548 7.9680520296096793 8.1804280281066877 56.466748237609863 14.294246792793272 38.723362445831299 73.205082654953003 90.368580102920532 19.60065484046936 10.400954246520994 12.503085136413572 61.616703033447266 46.494616508483887 718.38116312026978 13.073055624961851 7.8544946908950797 43.945479869842529 115.4048513174057 12.491697072982783 193.05986654758453 92.878119587898254 7.7696073055267325 17.359906673431396 16.554521799087524 200.21723747253418 13.762057542800902 24.258720517158508 7.654080629348754 145.23731160163879 14.134305000305174 18.962696194648743 17.159495830535889 125.1826730966568 27.987246870994568 10.963723182678221 18.835471391677856 18.696595191955566 78.578580856323242 28.078815579414368 9.3815404176712018 12.535164475440977 101.39745163917542 16.120245337486267 16.076312899589539 279.31975293159485 11.462976455688475 12.372629165649412 7.8706142902374259 101.18902432918549 7.9085446596145621 24.893647909164432 455.52122724056244 452.03494715690613
leaf_count=7 8 5 22 9 9 9 9 8 5 8 7 6 5 18 4 10 6 6 13 12 5 8 9 6 5 9 6 8 8 5 6 3 10 9 5 7 8 17 9 8 12 7 8 35 30 5 66 14 7 5 4 30 7 8 13 11 7 6 9 5 12 7 11 5 5 85 16 8 7 22 22 5 11 11 13 8 12 9 8 11 18 7 7 10 27 5 9 29 5 6 13 16 6 25 10 14 49 8 7 12 5 7 7 14 12 12 7 5 26 17 5 5 48 6 5 31 7 10 22 33 42 23 15 19 38 98 11 20 7 40 28 5 53 16 21 15 8 38 5 10 48 20 14 97 101 45 10 61 30 8 35 6 599 12 5 5 35 9 24 44 58 13 6 8 40 26 460 8 5 28 74 8 123 60 5 9 8 123 8 15 5 93 9 12 11 80 18 7 12 11 48 18 6 8 64 10 10 169 6 8 5 65 5 16 292 265
internal_value=-3.04659e-06 -0.00018205 -1.00067e-05 -0.000329082 0.000616048 0.00697961 -0.00288108 0.00920703 0.00170983 0.00505481 0.00693075 0.00305603 -0.00319529 0.00136148 0.00782664 -0.000131041 -0.00375206 0.00247558 0.00695211 -0.0015933 0.00263242 0.0010236 0.00155483 0.00313301 -0.00200465 0.00236532 0.00893888 -0.00146992 0.000208628 0.0084614 0.00346213 -0.00186385 -0.00240366 0.00286905 -0.00414208 -0.00120956 0.0018396 0.000702553 -0.00186767 -0.00262834 -0.00397388 -0.00375746 -0.00289411 0.000176182 -0.000533975 0.00683994 -0.00176281 -0.00105968 0.0012024 0.00184199 -0.00184365 0.0011521 0.00219404 0.00275053 0.000790147 0.00202409 -0.000810352 0.00140277 0.000940322 0.00412071 -0.000386237 0.00456894 -4.96733e-05 0.0044789 -0.000724224 0.000151529 0.0011591 0.00157766 -0.000785575 0.00154688 -0.00396689 -0.00419732 -0.00304324 -0.00109171 -0.00136148 -0.00191225 -0.00316395 -0.00228923 -0.00136069 -0.000130539 -0.000341826 0.000738679 0.000866996 -0.00236093 -0.00117273 0.00102086 0.00159212 0.000412028 0.000558995 0.00130374 0.00262258 -0.0017993 -0.000983389 0.0016421 -0.00045377 -0.00189542 -0.000664687 -0.000766181 -0.00133149 0.000475575 -0.000258917 0.000777575 0.000124328 -0.000583152 -0.00169889 0.000806856 -9.30937e-05 -0.00494389 0.000331152 -1.47482e-05 -0.00157696 -0.00240271 -0.000288622 0.0004655 0.000534174 0.000556521 -0.00102381 -1.17246e-05 -0.000465403 0.000317464 -0.00104924 0.000116373 -0.000607833 0.000376607 -0.000575529 -6.80121e-05 -0.000177776 0.000229781 -0.000185719 0.000418255 0.000367551 -0.00026358 -0.000324511 -0.000394589 -0.000188412 0.000270431 -0.00018229 -0.000312184 -0.000491709 -3.29171e-05 -0.000237029 0.000623678 3.51355e-06 -0.000194782 -2.03605e-05 -6.03983e-05 -0.000219811 -0.000259378 7.22594e-06 -5.85253e-05 -0.000107689 0.000215092 0.00010612 -4.03962e-05 -0.000129452 -0.00029573 1.05439e-05 -0.000100628 -0.000110617 -4.64672e-05 1.58684e-05 -4.33722e-05 -8.74637e-05 -5.4619e-05 -2.94157e-05 -3.84468e-05 1.8445e-05 -3.66192e-05 -6.77924e-05 -7.84893e-05 -6.96005e-06 0 0.000179808 2.02845e-05 2.20243e-05 -0.000352186 -0.000313181 -3.90688e-05 -0.000153241 -4.11113e-05 0 -4.97735e-06 -1.98393e-05 2.66671e-06 7.92103e-06 1.14736e-05 2.25596e-05 4.5269e-06 -1.15287e-05 -1.40491e-05 -1.53651e-05 2.32067e-05 -1.33993e-05 -1.54729e-05 -1.71635e-05 -9.19756e-07 -1.18184e-05 -4.3386e-05 -4.4693e-05 9.06101e-06 -1.93546e-05 1.1224e-05 -2.64419e-05 -3.02793e-05 0.000100865 -4.11926e-05
internal_weight=9945.36 9697.39 9117.12 6040.4 3076.72 247.967 580.278 113.83 833.911 134.137 60.5337 170.036 540.96 663.875 85.8439 5223.48 367.293 148.368 71.4423 816.921 138.091 525.784 196.165 34.5715 173.667 128.19 37.8376 747.823 2242.81 34.1737 73.6038 294.827 131.476 54.6526 271 452.997 108.204 329.619 78.8977 96.293 244.015 202.339 69.0974 2170.36 875.065 21.6681 281.632 373.999 161.593 44.9826 263.531 127.463 82.5023 41.0783 81.6205 111.99 207.627 39.3183 116.611 40.1634 554.631 29.5325 4348.41 20.5123 42.1911 2088.74 72.4439 32.5478 320.434 68.8636 170.982 118.497 67.1253 113.911 166.372 250.116 52.578 45.3659 59.8204 1302.53 518.528 94.3723 75.0051 46.5217 110.025 58.5433 41.4239 202.157 108.301 33.426 41.4681 203.594 36.1029 70.5217 93.7156 78.9977 223.51 54.0907 78.5354 98.987 287.431 39.8961 1819.61 89.3715 56.3468 46.2091 1015.1 41.6759 269.137 3045.88 43.4947 48.6799 429.156 59.9634 49.5641 79.4037 37.4689 3010.74 70.9383 66.2384 96.9246 1753.37 56.7399 214.646 165.067 812.62 55.5555 93.8559 36.9758 165.091 134.761 387.454 151.082 98.2855 202.482 88.0018 189.145 71.4738 41.7026 1286.54 118.036 38.5265 1724.21 175.661 908.628 377.908 236.372 137.922 1617.86 757.064 84.4459 49.5553 1524.13 29.8911 67.2851 25.6644 1508.88 124.169 109.875 584.89 1054.13 106.35 19.7897 83.9037 108.982 511.685 965.464 253.739 64.3031 51.8 602.224 336.138 229.238 875.095 782.217 131.293 113.933 240.666 98.4492 224.476 454.75 302.912 59.4282 276.71 161.305 144.145 774.447 151.838 157.674 266.086 247.39 746.46 150.02 131.185 121.803 88.6633 32.1966 306.404 290.783 124.525 109.268 112.153 45.2939 37.3853 1390.4 465.19
internal_count=5539 5456 5304 3475 1829 83 152 39 408 44 21 66 141 342 30 3150 90 56 26 325 72 270 86 19 51 67 14 299 1421 13 23 115 41 15 62 184 38 184 24 28 56 46 26 1382 461 10 112 153 67 20 104 70 30 15 51 58 80 11 47 18 295 13 2689 11 10 1331 39 16 166 40 39 27 19 41 73 100 17 17 22 771 277 38 31 18 48 24 15 114 65 15 22 82 18 36 39 31 117 19 34 60 175 23 1162 46 25 19 596 10 169 1918 17 15 231 38 32 48 14 1896 36 40 49 1122 25 134 87 476 35 49 14 102 83 208 81 59 120 55 116 43 23 794 69 25 1102 108 560 234 127 71 1034 441 51 32 976 19 40 16 964 78 69 343 674 68 11 54 70 299 619 156 41 33 375 215 146 561 501 70 61 148 56 138 290 193 38 177 103 92 496 97 100 160 149 478 95 83 77 55 20 185 175 80 69 72 29 24 891 273
cat_boundaries=0 1 2 3
cat_threshold=2 2 1
is_linear=0
shrinkage=0.02


Tree=6
num_leaves=44
num_cat=0
split_feature=36 36 36 36 36 89 36 60 81 36 8 26 36 59 36 36 36 87 69 63 61 26 36 36 36 2 36 35 36 36 36 89 36 36 36 36 36 36 36 36 36 36 36
split_gain=40.0408 18.8472 6.46956 2.29467 1.54253 1.03156 0.975694 0.536467 1.0334 0.342879 0.279775 0.247314 0.178977 0.156986 0.128321 0.106681 0.0771206 0.0644657 0.0903252 0.0613821 0.109359 0.0995849 0.0385709 0.0354866 0.0342248 0.0278015 0.0185416 0.0118583 0.00789715 0.00778218 0.00757506 0.00740253 0.006803 0.00263479 0.000814068 0.000807058 0.000547072 0.000371364 0.000369613 0.000328268 5.94074e-05 6.61628e-06 3.28472e-07
threshold=0.29216632246971136 -0.0864104889333248 0.049788387492299087 -0.15244187414646146 -0.024494539014995095 0.0345944780856371 0.13136333972215655 0.027588124386966232 0.0045428369194269189 0.01028187992051244 0.072379399091005339 2.0763810873031621 -0.046319371089339249 442.45178222656256 -0.0071348524652421466 -0.11310619860887526 0.086063664406538024 0.56866508722305309 1.4351392984390261 -1.0000000180025095e-35 195.86441040039065 2.0702095031738286 0.02208056673407555 -0.00027413463976699853 -0.06197423301637172 -168.10399627685544 -0.016262003220617768 42.963703155517585 -0.037562483921647065 0.032303426414728172 0.0032864270033314828 0.0345944780856371 -0.0033747316338121887 -0.010062739718705414 -0.0018860311829484997 -0.0049580805934965602 0.006170867010951043 0.0010918590705841782 -0.031387809664010995 0.014498212840408089 -0.0026018372736871238 -0.0036346192937344308 -0.0028540125349536534
decision_type=2 2 2 2 2 2 2 2 2 2 2 2 2 2 2 2 2 2 2 2 2 2 2 2 2 2 2 2 2 2 2 2 2 2 2 2 2 2 2 2 2 2 2
left_child=1 3 4 13 12 27 16 8 10 14 -7 19 24 25 26 -5 -4 18 -15 -9 21 -21 39 32 -3 -1 -6 -2 -14 -24 37 -8 35 -28 40 -16 -32 -25 -30 -11 42 -37 -34
right_child=5 2 6 15 9 7 31 11 -10 22 -12 -13 28 17 23 -17 -18 -19 -20 20 -22 -23 29 30 -26 -27 33 -29 38 -31 36 -33 34 -35 -36 41 -38 -39 -40 -41 -42 -43 -44
leaf_value=-0.0039924392927743572 0.0065209194862380004 -0.0013221572715478062 0.0011618521903235112 -0.0024171068286187344 -0.00030781363299870476 0.011264911029644463 0.0030437699671738362 0.0053742654107115139 0.015305889808275925 0.00025326353041010266 0.0072400879236950979 0.010654706987697094 -0.00069908693952064772 -0.0046260385212512573 -5.4129431731793466e-05 -0.0017879020614471528 0.0017824267752255612 -0.0038564788179885792 -0.0062699016143665885 0.011042355102859832 0.0066891039094834235 0.00737868323631984 0.00051076630295549073 5.5793695307345777e-05 -0.00092063231818226635 -0.0031395221053849239 -0.00017317377437948856 0.0048518332027811025 -0.00056374237600697143 0.00074786072463968532 0.00013027059590238783 0.0036349816370560492 -6.6314202140653137e-07 -9.6708146690057097e-05 3.1445833181885519e-05 -2.3347145734163763e-05 0.00018711200922250397 8.485088969008479e-05 -0.00044362015991668898 0.00035709961249330943 9.0874859468815159e-06 -3.72967875474126e-06 0
leaf_weight=160.99392700195312 58.274090528488159 217.75936889648438 172.72959899902344 271.44561767578125 375.79354858398438 16.874969244003296 155.09461975097656 12.784337520599363 16.689972400665283 144.58294677734375 25.755854368209839 17.696198344230652 189.50070190429688 84.583157539367676 728.74176025390625 228.42323303222656 189.94631958007812 42.391886711120605 28.923210144042969 11.777429342269899 34.740336418151855 17.453760027885437 158.169189453125 689.8605078458786 194.47579956054688 45.403961181640625 462.64181518554688 16.178057909011841 184.56352233886719 167.22967529296875 411.33265686035156 56.179473876953125 298.275634765625 450.01429748535156 1017.3130493164062 583.22456359863281 279.76524353027344 695.12875366210938 172.80801391601562 149.30918884277344 424.2994384765625 139.14999389648438 147.08134460449219
leaf_count=45 30 91 86 96 202 6 71 5 6 84 9 6 93 19 436 86 88 9 6 5 10 7 88 437 92 17 266 6 91 89 261 18 181 265 647 355 171 440 91 85 265 86 92
internal_value=-2.94719e-06 -0.00019773 7.70722e-05 -0.00301968 -6.51856e-05 0.00826823 0.0021296 0.0092367 0.0108813 3.34967e-05 0.00896858 0.00814139 -0.000819202 -0.00423478 -7.97329e-06 -0.00213365 0.00149163 -0.00476661 -0.00507935 0.00748379 0.00784491 0.00904931 0.000483586 3.45644e-05 -0.0011365 -0.00381769 -0.00018744 0.00620636 -0.000577373 0.000636643 9.95061e-05 0.00321391 -5.5348e-06 -0.000136639 1.91496e-05 -3.83177e-05 0.000154845 7.11247e-05 -0.000509152 0.00030993 3.6065e-06 -2.09568e-05 0
internal_weight=9945.36 9717.14 8854.97 862.165 8281.02 228.225 573.95 153.773 59.3208 7321.91 42.6308 94.4521 959.107 362.296 6702.62 499.869 362.676 155.898 113.506 76.7559 63.9715 29.2312 619.291 5414.17 412.235 206.398 1288.45 74.4521 546.872 325.399 2076.09 211.274 3338.09 912.656 1886.97 1451.12 691.098 1384.99 357.372 293.892 869.656 722.375 445.357
internal_count=5539 5449 5171 278 4908 90 263 54 21 4450 15 33 458 96 4104 182 174 34 25 27 22 12 346 3371 183 62 733 36 275 177 1309 89 2062 531 1185 877 432 877 182 169 538 441 273
is_linear=0
shrinkage=0.02


Tree=7
num_leaves=42
num_cat=0
split_feature=36 36 36 36 1 36 68 62 36 36 36 59 36 36 36 87 69 34 2 77 36 36 36 2 36 36 36 36 89 36 36 36 36 36 36 36 36 36 36 36 36
split_gain=38.4978 18.1063 6.21497 2.20501 2.02219 1.48192 0.993868 1.16868 0.937154 0.329477 0.171808 0.150656 0.123287 0.102251 0.073927 0.0614712 0.0865136 0.0570061 0.185612 0.0441021 0.0369982 0.0341072 0.0327606 0.026256 0.0178463 0.00752188 0.00741254 0.00726874 0.00684399 0.0065419 0.00158237 0.000882303 0.00078076 0.000769662 0.000510371 0.000349755 0.000305103 0.000284989 5.72433e-05 4.30166e-06 3.15486e-07
threshold=0.29216632246971136 -0.0864104889333248 0.049788387492299087 -0.15244187414646146 1.8343391418457033 -0.024494539014995095 316.42364501953131 207.26910400390628 0.13136333972215655 0.01028187992051244 -0.046319371089339249 442.45178222656256 -0.0071348524652421466 -0.11310619860887526 0.086063664406538024 0.56866508722305309 1.4351392984390261 6.5546703338623056 195.86439514160159 0.2284948602318764 0.02208056673407555 -0.00027413463976699853 -0.06197423301637172 -168.10399627685544 -0.013558749575167893 -0.037562483921647065 0.032303426414728172 0.0032864270033314828 0.0345944780856371 -0.0033747316338121887 -0.019795672968029972 -0.010062739718705414 -0.0018860311829484997 -0.0049580805934965602 0.006170867010951043 0.0010918590705841782 -0.031387809664010995 0.014498212840408089 -0.0026018372736871238 -0.0036346192937344308 -0.0028540125349536534
decision_type=2 2 2 2 2 2 2 2 2 2 2 2 2 2 2 2 2 2 2 2 2 2 2 2 2 2 2 2 2 2 2 2 2 2 2 2 2 2 2 2 2
left_child=1 3 5 11 17 10 7 19 14 12 22 23 24 -5 -4 16 -13 18 -2 -6 37 29 -3 -1 30 -12 -22 35 -10 33 -7 -26 38 -14 -29 -23 -27 -11 40 -35 -31
right_child=4 2 8 13 6 9 -8 -9 28 20 25 15 21 -15 -16 -17 -18 -19 -20 -21 26 27 -24 -25 31 36 -28 34 -30 32 -32 -33 -34 39 -36 -37 -38 -39 -40 -41 -42
leaf_value=-0.0039128369130318362 0.0054373145839707124 -0.0012957749504259133 0.0011386826544729982 -0.0023688538681980583 0.007699036635453539 -0.00033414159889466751 0.0072444469442459339 0.016390699621498011 0.0029830908922767753 0.00024821627789513317 -0.00068514159296299598 -0.0045340614032500859 -5.3047583265645338e-05 -0.0017522220147782605 0.0017468721279048647 -0.0037802483726493787 -0.0061466343442431451 0.005610275633379065 0.0078638857196735995 0.01065051246288274 0.00050058309840463262 5.4677607432955157e-05 -0.00090226648853672625 -0.0030774168800164342 -0.00015162994857879951 -0.00055249764662512822 0.00073294804660666664 0.00012766833542726742 0.0035629237058849186 -6.4990154302157637e-07 -0.00023505689406514755 -9.477608624415326e-05 3.0817187203772605e-05 -2.2880606272190252e-05 0.00018337645487566794 8.3155079749099386e-05 -0.00043477400689845714 0.00034998145605549867 8.9060368741306248e-06 -3.6550946463623897e-06 0
leaf_weight=160.99392700195312 31.513349533081055 217.75933837890625 172.72962951660156 271.44558715820312 13.576667785644529 199.74552917480469 33.139823913574219 18.112298965454102 155.09461975097656 144.58293151855469 189.50076293945312 84.583157539367676 728.74177551269531 228.42323303222656 189.94630432128906 42.391886711120605 28.923210144042969 53.6856689453125 46.269363403320312 31.927833557128906 158.16920471191406 689.8606299161911 194.47586059570312 45.403961181640625 313.03675842285156 184.56358337402344 167.22969055175781 411.33267211914062 56.179473876953125 298.275634765625 325.65309143066406 450.01422119140625 1017.3131408691406 583.22457885742188 279.76524353027344 695.1287841796875 172.80783081054688 149.30918884277344 424.29934692382812 139.14988708496094 147.08134460449219
leaf_count=45 17 91 86 96 5 104 9 6 71 84 93 19 436 86 88 9 6 19 22 12 88 437 92 17 181 91 89 261 18 181 183 265 647 355 171 440 91 85 265 86 92
internal_value=-2.80723e-06 -0.000193802 7.55424e-05 -0.00295973 0.00810743 -6.38859e-05 0.0103388 0.0118661 0.00208728 3.28357e-05 -0.000802942 -0.00415091 -7.81274e-06 -0.0020911 0.00146193 -0.00467248 -0.0049789 0.00642466 0.00693455 0.0098849 0.000474041 3.38792e-05 -0.00111387 -0.00374177 -0.000183727 -0.00056593 0.00062401 9.75468e-05 0.00315004 -5.42735e-06 -0.00027491 -0.000119494 1.87718e-05 -3.75794e-05 0.000151782 6.97171e-05 -0.000499053 0.000303821 3.52247e-06 -2.05657e-05 0
internal_weight=9945.36 9717.14 8854.97 862.165 228.225 8281.02 96.7566 63.6168 573.95 7321.91 959.107 362.296 6702.62 499.869 362.676 155.898 113.506 131.468 77.7827 45.5045 619.291 5414.17 412.235 206.398 1288.45 546.872 325.399 2076.09 211.274 3338.09 525.399 763.051 1886.97 1451.12 691.098 1384.99 357.371 293.892 869.656 722.374 445.357
internal_count=5539 5449 5171 278 90 4908 32 23 263 4450 458 96 4104 182 174 34 25 58 39 17 346 3371 183 62 733 275 177 1309 89 2062 287 446 1185 877 432 877 182 169 538 441 273
is_linear=0
shrinkage=0.02


Tree=8
num_leaves=44
num_cat=0
split_feature=36 36 36 36 36 89 36 60 11 81 36 60 36 59 36 36 36 27 36 36 36 88 2 53 36 0 80 36 36 36 89 36 36 36 36 36 36 7 36 36 36 36 36
split_gain=37.0025 17.3945 5.97042 2.11886 1.4237 0.960796 0.900134 0.505352 0.991112 0.351728 0.316605 0.238608 0.164923 0.144574 0.118472 0.0979988 0.0708626 0.0460527 0.0354888 0.0327949 0.0313562 0.0279802 0.0247827 0.0173953 0.0171396 0.0108485 0.00792573 0.0076766 0.00716266 0.00705873 0.00631188 0.00566091 0.00240186 0.000778433 0.000516245 0.00049476 0.000475417 0.000440649 0.000244077 0.000244037 4.13276e-05 3.81958e-06 2.2314e-06
threshold=0.29216632246971136 -0.0864104889333248 0.049788387492299087 -0.15244187414646146 -0.024494539014995095 0.0345944780856371 0.13136333972215655 0.027588124386966232 2.3594532012939458 0.0041462976951152095 0.01028187992051244 0.09436588361859323 -0.046319371089339249 442.45178222656256 -0.0071348524652421466 -0.11310619860887526 0.086063664406538024 2.0001703500747685 0.02208056673407555 -0.00047123013064265246 -0.06197423301637172 0.98330393433570873 -168.10399627685544 6.9811275005340585 -0.016262003220617768 701.51757812500011 0.69975134730339061 0.0032864270033314828 -0.037562483921647065 0.032303426414728172 0.0345944780856371 -0.0036346192937344308 -0.011713703162968157 -0.0021081343293189998 -0.0053371384274214497 0.0010918590705841782 0.006170867010951043 0.22419760376214984 -0.031387809664010995 0.014498212840408089 -0.0028540125349536534 -0.0031018932349979873 -0.0016650555189698932
decision_type=2 2 2 2 2 2 2 2 2 2 2 2 2 2 2 2 2 2 2 2 2 2 2 2 2 2 2 2 2 2 2 2 2 2 2 2 2 2 2 2 2 2 2
left_child=1 3 4 13 12 25 16 8 9 -7 14 21 20 22 24 -5 -4 23 39 31 -3 -9 37 -15 -6 26 -2 35 -14 -20 -8 34 -26 40 -16 -21 -29 -1 -30 -12 41 -33 -35
right_child=5 2 6 15 10 7 30 11 -10 -11 18 -13 28 17 19 -17 -18 -19 29 27 -22 -23 -24 -25 32 -27 -28 36 38 -31 -32 33 -34 42 -36 -37 -38 -39 -40 -41 -42 -43 -44
leaf_value=-0.0039478244816298488 0.007353564381101913 -0.0012699187015742062 0.0011159747860831947 -0.0023215630784209473 -0.00029591871792020803 0.0072829445069430209 0.0029236209096985717 0.0083009654023477666 0.015654291692913064 0.011550343705773115 0.00024326911558474312 0.010533262302285384 -0.00067147510080399053 -0.005258451662307758 -5.4935931490285813e-05 -0.0017172568388130866 0.0017120266108189759 -0.0033696266003513148 0.00049060306634245469 5.1926902909122988e-05 -0.00088426773306737481 0.0066063655600022385 -0.0030165362578069973 -0.0043415404323339391 -0.0001813411731619382 0.0046488642599168059 0.005683507984835994 0.00012511806862501907 -0.00054147772536787021 0.00071833286831220178 0.0034922936073479771 -5.201547069876478e-06 -0.00010377853778630073 1.3543766392274354e-05 -2.5320230214886388e-05 8.1493178348773264e-05 0.00017971546470328892 -0.0031031350152920839 -0.00042610576270786515 0.00034300516429438285 4.7942712060024809e-06 0 2.9699253414220053e-05
leaf_weight=136.36890649795532 17.547722935676575 217.75933837890625 172.72964477539062 271.44561767578125 375.79354858398438 30.410135984420776 155.0946044921875 26.547032833099365 12.715500831604002 16.195159196853638 144.58297729492188 15.007216453552244 189.500732421875 57.598182916641235 599.05007934570312 228.42323303222656 189.94630432128906 22.428616285324097 158.16920471191406 833.16150271892548 194.475830078125 52.897812366485596 45.403915405273438 75.87147045135498 308.6253662109375 16.178057909011841 40.726367592811584 411.33265686035156 184.56356811523438 167.22967529296875 56.179473876953125 297.2349853515625 604.03071594238281 278.33958435058594 712.91630554199219 695.12872314453125 279.76522827148438 24.625020503997803 172.80790710449219 149.30918884277344 434.70964050292969 140.19058227539062 732.34368896484375
leaf_count=38 9 91 86 96 202 11 71 11 5 5 84 5 93 13 357 86 88 5 88 528 92 17 17 16 178 6 21 261 91 89 18 183 353 176 434 440 171 7 91 85 271 84 466
internal_value=-2.70357e-06 -0.000189954 7.40406e-05 -0.00290097 -6.26148e-05 0.00794847 0.0020458 0.00888332 0.0104785 0.00889394 3.21851e-05 0.00782104 -0.000787008 -0.0040687 -7.65854e-06 -0.00204941 0.00143283 -0.00458021 0.000464687 3.3208e-05 -0.0010917 0.00723351 -0.00366737 -0.00476284 -0.000180105 0.00595793 0.0062617 9.22903e-05 -0.000554716 0.000611629 0.00308745 -7.53094e-06 -0.000131187 1.43031e-05 -3.96206e-05 6.60512e-05 0.00014878 -0.00383482 -0.000489157 0.000297832 0 -3.86083e-06 2.62479e-05
internal_weight=9945.36 9717.14 8854.97 862.165 8281.02 228.225 573.95 153.773 59.3208 46.6053 7321.91 94.4521 959.107 362.296 6702.62 499.869 362.676 155.898 619.291 5414.17 412.235 79.4448 206.398 133.47 1288.45 74.4521 58.2741 2219.39 546.872 325.399 211.274 3194.78 912.656 1882.82 1311.97 1528.29 691.098 160.994 357.371 293.892 872.135 437.426 1010.68
internal_count=5539 5449 5171 278 4908 90 263 54 21 16 4450 33 458 96 4104 182 174 34 346 3371 183 28 62 29 733 36 30 1400 275 177 89 1971 531 1180 791 968 432 45 182 169 538 267 642
is_linear=0
shrinkage=0.02


Tree=9
num_leaves=71
num_cat=0
split_feature=2 2 2 2 2 1 59 2 39 48 35 1 42 63 56 2 2 2 56 2 2 87 47 38 14 14 58 35 35 38 62 2 2 2 0 2 41 25 58 47 87 0 2 35 86 2 86 45 2 2 58 0 2 0 56 38 2 2 0 2 2 38 2 2 86 39 38 39 2 58
split_gain=32.9708 15.4596 5.16869 1.88097 1.74842 1.21034 1.69329 1.20285 0.863591 0.523102 0.500708 0.391364 0.359885 0.317326 0.313463 0.18147 0.156409 0.135503 0.125221 0.0976761 0.0917239 0.0842419 0.145868 0.0795914 0.0534048 0.0637199 0.0424734 0.038943 0.0375025 0.0345456 0.0337298 0.0304425 0.0282483 0.0269354 0.0214956 0.0199818 0.01898 0.018218 0.0178986 0.0174198 0.0160587 0.0126885 0.0115515 0.0105032 0.00577502 0.0053427 0.00352421 0.00311394 0.00301754 0.00287899 0.00261796 0.00249207 0.0020348 0.00199092 0.00191039 0.00128898 0.00102655 0.0008564 0.000554047 0.000277449 0.000276032 0.000222042 0.000172734 0.00012398 7.75573e-05 5.47841e-05 5.35633e-05 2.75154e-05 9.83393e-06 1.06277e-06
threshold=80.823818206787124 -60.184120178222649 195.86439514160159 12.40239477157593 -168.10399627685544 2.3520337343215947 172.64233398437503 -10.319660186767576 1075.131774902344 0.024685408920049671 42.963703155517585 1.8343391418457033 1075.131774902344 0.2563189566135407 513.01141357421886 38.192464828491218 1.1661099791526797 -25.240795135498043 399.63044738769537 -95.313800811767564 -2.6900349855422969 -0.03187835402786731 0.10455069690942766 0.21203524619340899 0.12382593378424646 0.20664590597152713 538.20477294921886 44.462341308593757 48.736143112182624 1.3748044371604922 105.36364746093751 4.8350150585174569 -38.968549728393548 21.220875740051273 701.51757812500011 -0.62239497900009144 785.82736206054699 2.0045884847640996 2100.6950683593755 0.023023290559649471 0.56866508722305309 785.82736206054699 -4.9183950424194327 42.963703155517585 16.560919761657718 -13.858075141906737 15.780228137969972 785.82736206054699 0.13842999935150149 -1.4599000215530393 371.39320373535162 627.29067993164074 2.2710899114608769 1075.131774902344 1064.6678466796877 -0.10497553274035452 7.7017648220062265 -7.8934850692749015 352.81025695800787 -0.94091498851776112 -0.26761500537395472 0.044791532680392272 -1.8631700277328489 0.50297498703002941 -2.9486128091812129 480.82345581054693 -0.1875573247671127 425.33993530273443 -0.85574501752853382 270.24957275390631
decision_type=2 2 2 2 2 2 2 2 2 2 2 2 2 2 2 2 2 2 2 2 2 2 2 2 2 2 2 2 2 2 2 2 2 2 2 2 2 2 2 2 2 2 2 2 2 2 2 2 2 2 2 2 2 2 2 2 2 2 2 2 2 2 2 2 2 2 2 2 2 2
left_child=1 4 10 7 21 8 13 17 11 12 18 14 -8 -7 -4 26 20 29 -2 28 42 38 24 -17 30 -26 33 -21 -6 32 -23 52 -3 -5 -16 49 -27 -38 47 -10 -24 -25 51 45 -29 -19 -28 -1 60 62 56 57 -18 -12 -31 -35 -33 -9 -44 66 -37 -59 65 -50 -60 -22 -51 -64 -61 -70
right_child=2 3 5 15 19 6 9 16 39 -11 53 -13 -14 -15 34 23 31 43 -20 27 35 22 40 41 25 36 46 44 -30 54 -32 50 -34 55 -36 48 37 -39 -40 -41 -42 -43 58 -45 -46 -47 -48 -49 63 59 -52 -53 -54 -55 -56 -57 -58 61 64 68 -62 -63 67 -65 -66 -67 -68 -69 69 -71
leaf_value=-0.0041715382360147926 0.0055643027247366137 -0.0013281581047995445 0.0089007172147750977 0.00080267231433785364 -0.0024266204664070983 0.0095516422274281448 0.0059494541094479879 -0.00032913556994574282 0.0039112566466834447 0.0041340490701439114 0.0020755154194937028 0.0096912561412504598 0.010525883391741946 0.015059505392044566 0.0065552925249650349 0.0022358268191086223 0.00013969691926411996 -0.00061532762148825088 0.0034953209162494497 -0.0018939739708481367 -6.3861325009166692e-05 -0.0035483774704982473 -0.0019857964384477405 0.0015018280687196794 -0.0048017199426379923 -0.0027169206069260054 0.00062675236908048011 -0.0013956443296241864 -0.0018194274038555625 -0.00072725038827826699 -0.0023210801468215195 0.00038411911324160152 -0.00090944149470897049 0.0014745755329471188 0.0051979099789830983 2.1186313497302276e-05 -0.0043052341710152426 -0.0031310070806006268 -0.0046291435001392317 0.0025394303353850445 -0.0030162607397793053 0.00093086299756030061 -0.0001484482516715368 -0.00024216838524855665 -0.00075388896305243964 -0.000440368799792311 0.00025846438272559164 -0.002879451658133878 6.4070691624502828e-05 -1.7983389242882586e-05 0.00030863538493977128 -3.1478718538837323e-05 0.00022385744589116218 0.0015735912501412194 -0.00039566555966848334 0.0010889306548460267 0.00056025211409000634 -0.00026065994874552062 0 0 4.2604525633284342e-05 -0.00016601877541289132 -3.8518914338132469e-05 9.150289736613365e-05 -9.4321856371009594e-05 0 0 0 0 4.416816679763085e-06
leaf_weight=16.909276008605957 17.527586936950684 154.08771133422852 17.861442565917969 108.0482771396637 194.35011863708496 13.133011817932131 18.13693380355835 160.37232971191406 20.39831018447876 21.309420108795166 72.600608825683594 19.140293121337891 18.117037773132324 17.317573547363281 28.407937288284302 69.312101602554321 414.59841918945312 338.97338104248047 96.666111946105957 140.6800537109375 578.10658383369446 67.038516044616699 29.181368827819824 75.8334641456604 49.075862169265747 19.812455415725708 100.6573703289032 82.415897369384766 85.559976577758789 53.573019981384277 21.872206687927246 93.571172952651978 168.1716194152832 54.334042072296143 59.49107813835144 711.96136474609375 41.179799556732178 26.314427375793457 73.200942993164062 18.889384746551514 24.640579223632812 39.538439989089966 321.32829523086548 59.068000793457031 16.259654998779297 165.43431091308594 24.121661186218262 17.294798851013184 563.80693817138672 583.41987061500549 104.24972701072693 28.271487474441528 276.78530883789062 38.769519805908203 30.785508155822754 50.918925762176514 95.925270080566406 220.92393946647644 7.5856299400329581 131.88955688476562 843.35621249675751 92.210914611816406 403.19510173797607 544.7119140625 278.8094482421875 9.1953723430633527 144.61963438987732 34.007916450500488 48.400522828102112 377.64807641506195
leaf_count=5 10 70 9 64 71 5 5 89 6 5 26 7 5 7 13 39 262 173 46 60 346 17 7 35 13 5 44 29 25 19 5 59 80 33 21 452 9 6 17 5 6 13 200 20 4 90 7 5 360 368 52 9 171 11 8 27 60 132 3 83 539 48 248 344 154 4 82 18 32 237
internal_value=-2.5798e-06 -0.000261481 0.00512073 1.33685e-06 -0.00274546 0.00708983 0.00903296 -7.417e-05 0.00601787 0.00687183 0.00290384 0.00684284 0.0083757 0.012909 0.00627475 0.00116335 1.63392e-05 -0.000734398 0.00384448 -0.00198004 -2.13726e-05 -0.0037673 -0.00354053 0.001674 -0.00377874 -0.00408843 0.000879383 -0.00165828 -0.00224816 -0.00101547 -0.00327231 0.000250141 -0.0011145 0.00105695 0.00568251 1.51228e-05 -0.00365103 -0.00388853 -0.0043282 0.00331702 -0.00249939 0.00131965 -0.000185829 -0.000529074 -0.00130431 -0.000560419 0.000564855 -0.00359793 5.25799e-05 -2.76322e-05 0.000423069 -0.000258746 0.000174972 0.00191754 -0.000621072 0.0013035 0.000479783 -0.000270158 -0.000123816 -6.79815e-06 3.34528e-05 -0.000236288 -5.27918e-05 7.84874e-05 -9.24838e-05 -6.3065e-05 -1.5159e-05 -3.66508e-05 2.32486e-06 4.03708e-06
internal_weight=9945.36 9467.59 477.766 8561.81 905.786 252.202 88.014 8039.04 164.188 57.5634 225.564 124.901 36.254 30.4506 105.76 522.764 7068.95 970.094 114.194 519.266 6083.82 386.52 279.115 184.684 225.293 136.383 338.08 239.356 279.91 406.618 88.9107 985.13 322.259 213.301 87.899 4974.32 87.3067 67.4942 107.405 39.2877 53.8219 115.372 1109.5 563.476 98.6756 504.408 124.779 34.2041 2663.84 2310.48 293.746 501.779 691.384 111.37 84.3585 105.253 189.496 473.507 607.723 1285.98 1555.32 313.135 1024.5 1108.52 286.395 587.302 728.04 437.203 557.938 426.049
internal_count=5539 5358 181 5074 284 88 27 4812 61 15 93 50 10 12 43 262 4352 460 56 189 3748 95 68 87 55 33 175 93 96 177 22 604 150 124 34 3113 20 15 27 11 13 48 635 283 33 263 51 10 1695 1418 171 278 433 37 27 60 119 269 357 802 991 180 616 704 157 350 450 266 352 269
is_linear=0
shrinkage=0.02


Tree=10
num_leaves=39
num_cat=0
split_feature=36 36 36 36 36 1 36 68 62 36 59 36 38 89 36 36 36 87 36 36 36 2 36 69 63 36 36 36 36 36 36 36 36 36 36 36 36 36
split_gain=33.0614 15.9382 5.49867 1.97264 1.33375 1.14258 0.791257 0.555242 0.60141 0.279866 0.190253 0.151791 0.144316 0.197748 0.101035 0.0879441 0.0643206 0.0349267 0.0313457 0.0296865 0.0288057 0.0222499 0.0179423 0.0153966 0.00842317 0.00661097 0.00615433 0.00595493 0.00513027 0.00131067 0.00097232 0.000819876 0.000635513 0.000267256 0.00016275 8.96113e-05 1.30618e-05 1.32827e-06
threshold=0.29216632246971136 -0.0864104889333248 0.049788387492299087 -0.15244187414646146 -0.024494539014995095 1.8343391418457033 0.13136333972215655 316.42364501953131 105.36364746093751 0.01028187992051244 442.45178222656256 -0.046319371089339249 1.0792889595031741 0.0345944780856371 -0.0066513938363641492 -0.11310619860887526 0.086063664406538024 0.56866508722305309 0.02208056673407555 -0.06197423301637172 0.00022199365048436451 195.86439514160159 -0.013558749575167893 1.2467082738876345 0.082559853792190566 -0.037562483921647065 -0.0031018932349979873 0.032303426414728172 0.0040632793679833421 -0.010062739718705414 -0.019795672968029972 -0.0014121539425104854 -0.0046165031380951396 0.0017476144130341711 0.014498212840408089 -0.0023581070126965638 -0.0033747316338121887 -0.0028540125349536534
decision_type=2 2 2 2 2 2 2 2 2 2 2 2 2 2 2 2 2 2 2 2 2 2 2 2 2 2 2 2 2 2 2 2 2 2 2 2 2 2
left_child=1 3 4 10 11 12 16 8 24 14 23 19 13 21 22 -5 -4 -12 34 -3 26 -2 30 -1 -7 -13 32 -20 33 -24 -6 35 -16 -22 -11 37 -34 -28
right_child=5 2 6 15 9 7 -8 -9 -10 18 17 25 -14 -15 20 -17 -18 -19 27 -21 28 -23 29 -25 -26 -27 31 -29 -30 -31 -32 -33 36 -35 -36 -37 -38 -39
leaf_value=-0.0032129144775967376 0.0049868645039661671 -0.0012107578512010719 0.0010795875993977364 -0.0022153186011338454 -0.00031188541035037984 0.0063440122126145861 0.0029494881800890228 0.0070800512538110117 0.013166276668180323 0.00023479831196420025 -0.0047720666830809912 -0.00064129939734085045 0.0052319031208641498 0.0085292686116333564 -4.2747416144637083e-05 -0.0016241231488415828 0.0016519250393782845 -0.0036760099167047699 0.00047110804434278734 -0.00084097286097157544 6.0491631480921157e-05 0.0066393261295574022 -0.00014271400881236179 -0.0038109143719285911 0.0091262585702479981 -0.00046703088802415113 0 0.00068910562241094751 0.0001502439668847888 -8.3387076994580016e-05 -0.00022050998405781619 3.6536321509525909e-05 -1.6133766855784409e-05 8.9552421769684091e-05 0.00032844423323922736 1.4805405612853871e-05 0 1.3944064079942447e-06
leaf_weight=115.60145568847656 24.154726505279541 226.89697265625 166.95904541015625 264.53311157226562 178.26806640625 9.9802064895629901 209.58489990234375 38.139823913574219 24.22512149810791 147.38011169433594 111.60612964630127 196.63200378417969 56.258697032928467 26.191570281982422 790.13768005371094 209.97042846679688 193.9437255859375 36.14826488494873 158.379638671875 198.09007263183594 689.11601257324219 32.760139465332031 307.77825927734375 100.01835632324219 20.692211151123047 353.67401123046875 154.1964111328125 153.06460571289062 568.30615234375 648.59849548339844 297.98190307617188 1013.8312078714371 592.79417419433594 544.5426025390625 160.97442626953125 604.4368896484375 150.38175964355469 291.09805297851562
leaf_count=36 13 95 85 91 93 4 89 10 8 87 24 97 20 12 473 80 92 8 89 93 438 16 178 29 8 180 95 81 356 382 170 644 363 346 90 381 92 182
internal_value=-7.30553e-07 -0.000177191 6.84635e-05 -0.00281466 -6.01197e-05 0.00744686 0.00196788 0.00921559 0.0106039 3.08021e-05 -0.0039266 -0.000755449 0.00623022 0.00685873 -5.98643e-06 -0.0019578 0.00139178 -0.00452396 0.000437578 -0.00104194 3.34849e-05 0.00600497 -0.000155391 -0.00350311 0.00836933 -0.000531641 5.03352e-07 0.000582385 9.87457e-05 -0.000103589 -0.000257102 2.33241e-05 -2.95548e-05 7.41606e-05 0.000287376 9.6002e-06 -1.41646e-05 2.82852e-07
internal_weight=10067.3 9834.92 8997.05 837.878 8426.56 232.402 570.488 93.0374 54.8975 7451.27 363.374 975.293 139.365 83.1064 6831.47 474.504 360.903 147.754 619.799 424.987 5398.84 56.9149 1432.63 215.62 30.6724 550.306 3596.88 311.444 1801.96 956.377 476.25 2063.56 1533.31 1233.66 308.355 1049.73 743.176 445.294
internal_count=5630 5539 5271 268 5005 91 266 30 20 4540 97 465 61 41 4193 171 177 32 347 188 3370 29 823 65 12 277 2230 170 1140 560 263 1302 928 784 177 658 455 277
is_linear=0
shrinkage=0.02


Tree=11
num_leaves=67
num_cat=0
split_feature=2 2 2 2 2 2 49 1 49 53 4 0 1 2 2 2 11 58 6 2 38 35 2 38 62 0 80 35 35 35 2 2 87 25 90 74 2 2 0 73 2 0 35 57 2 2 2 2 86 39 0 86 2 2 0 2 2 2 2 41 0 53 44 57 58 2
split_gain=29.7965 14.1536 4.31953 1.84032 1.59514 1.13951 0.94691 0.604939 0.653709 0.595946 0.410275 0.374138 0.252843 0.17964 0.144775 0.115199 0.113092 0.123036 0.106218 0.10348 0.0973274 0.0820177 0.0804633 0.0706425 0.0615658 0.0452757 0.0444933 0.0434204 0.0380145 0.0363891 0.0310995 0.0287425 0.0232668 0.0227158 0.0448878 0.0286446 0.0216544 0.019737 0.0132866 0.0132802 0.00844875 0.00836883 0.00754337 0.00599994 0.00526076 0.00286868 0.00269236 0.00268226 0.0025845 0.00196129 0.00187103 0.0014939 0.00079521 0.000416949 0.000361267 0.000298024 0.000214109 0.000212792 0.000198676 0.000173818 0.000111386 6.63195e-05 3.23094e-05 2.19589e-05 1.33017e-05 1.0685e-05
threshold=80.823818206787124 -60.184120178222649 195.86439514160159 12.40239477157593 -168.10399627685544 -10.319660186767576 6.130164861679078 2.3520337343215947 6.9811275005340585 6.9811275005340585 0.023023290559649471 785.82736206054699 1.8343391418457033 38.192464828491218 0.94609999656677257 -25.240795135498043 2.2958383560180669 2100.6950683593755 0.11943991482257844 -95.313800811767564 1.0792889595031741 39.536106109619148 -3.041120052337646 0.21203524619340899 -72.060348510742173 1075.131774902344 0.86561813950538646 38.162466049194343 44.462341308593757 46.479684829711921 4.8350150585174569 21.220875740051273 0.23087029904127124 2.0101118087768559 0.071733679622411742 -0.77212798595428456 -38.968549728393548 -0.7712700068950652 701.51757812500011 -0.62540480494499195 -4.9183950424194327 701.51757812500011 42.963703155517585 370.61625671386724 -18.554835319519039 -0.077169999480247484 -1.5885900259017942 2.2710899114608769 15.780228137969972 326.59616088867193 480.82345581054693 16.560919761657718 -7.8934850692749015 7.7017648220062265 352.81025695800787 0.3145699948072434 -0.47706000506877894 -1.138699948787689 -2.247074961662292 1075.131774902344 576.96307373046886 6.2877743244171151 387.25181579589849 452.24430847167974 318.85256958007818 -0.85574501752853382
decision_type=2 2 2 2 2 2 2 2 2 2 2 2 2 2 2 2 2 2 2 2 2 2 2 2 2 2 2 2 2 2 2 2 2 2 2 2 2 2 2 2 2 2 2 2 2 2 2 2 2 2 2 2 2 2 2 2 2 2 2 2 2 2 2 2 2 2
left_child=1 4 11 5 16 15 18 8 12 -9 -11 21 20 27 22 28 17 24 -4 25 -8 43 40 -15 32 -6 -19 31 36 42 47 -5 -1 34 39 -36 -3 46 -25 -18 50 44 -21 -2 -17 56 58 -16 -29 53 52 -30 -7 -32 -42 -47 -39 62 61 -52 -56 -24 -48 -60 65 -59
right_child=2 3 6 13 19 14 7 9 -10 10 -12 -13 -14 23 30 41 33 26 -20 29 -22 -23 37 38 -26 -27 -28 48 51 -31 49 -33 -34 -35 35 -37 -38 45 -40 -41 54 -43 -44 -45 -46 55 57 -49 -50 -51 59 -53 -54 -55 60 -57 -58 64 63 -61 -62 -63 -64 -65 -66 -67
leaf_value=-0.0032684455743336623 0.00527365926538635 -0.0012694282658621367 0.011501643815307532 0.00078049451767818034 -0.0023843921636885323 -0.00033743139274185023 0.0066003655446353025 0.004960088754452285 0.0028951935122857181 0.0063539567429439173 0.010745537931101482 0.0017982851165720525 0.0091197102719320303 0.0021970152521718503 0.00012809934021993416 -0.00065703425956609109 -0.0031298787399831962 -0.003990665620033829 0.0079922484548751119 -0.0019520720121666416 0.0049911460819783079 0.002997831769998521 -7.3570175215600548e-05 0.0015445535319074076 -0.0024070537592722728 -0.001745158450740132 -0.0051552741050711441 0.00060786515389575917 -0.00066560060733897634 -0.001011017680968852 0.00037199734228868009 0.0012975709238471755 -0.0043414838042464326 -0.002263234086227515 -0.004357558605187912 -0.0029582139521111077 -0.00088784524330879743 1.0529029765563449e-05 0.00099127461857111956 -0.0022186896029554406 -0.00015291800650989507 -0.00021481274171510266 -0.0015197078742161976 0.0038192677931190395 -0.00048686303872300845 5.0314417966286195e-05 -2.4050185788802442e-05 0.00021590339599774182 0.00027011618643435541 0.00031173289582936452 -0.00015624983703351451 -0.00033815505701522477 -0.00023690374084261355 0.0005391290665782715 -9.8573168349687604e-05 7.7068310582526184e-05 2.9780242738860689e-05 -6.9891347290352736e-06 -4.654589046105174e-05 0 0 0 0 0 0 0
leaf_weight=55.452784538269043 12.444216847419737 160.6865234375 16.350356817245483 103.77317237854004 171.95932769775391 135.88254547119141 43.245738983154297 25.106939315795898 36.281228065490723 18.901901960372925 28.091500520706177 95.042584419250488 12.066116333007811 68.757909774780273 562.260009765625 179.9904670715332 56.651811838150024 74.304500579833984 18.266230344772339 67.630424499511719 61.428116321563721 68.553122997283936 471.18643021583557 68.953395843505859 29.782119512557983 93.020195007324219 41.391796112060547 99.09128475189209 69.157253265380859 51.348129272460938 86.477534174919128 106.7672119140625 31.428687572479248 23.175379037857056 31.241586208343506 22.688722133636475 152.36611366271973 589.24380493164062 48.849409103393555 26.163404703140259 246.98779845237732 43.270797729492188 108.25968170166016 34.071831107139587 322.57670211791992 701.89057981967926 533.55031216144562 267.42964172363281 24.413710594177246 132.80248749256134 76.215615510940552 24.018106460571289 257.47096228599548 82.403694152832031 219.32921671867371 689.50758361816406 876.06446838378906 301.7459831237793 594.76160717010498 12.782179832458494 12.652421474456785 9.1907365322113019 63.621578097343445 22.976872444152832 181.05801355838776 112.81485402584076
leaf_count=16 7 73 8 62 63 77 20 7 10 5 7 31 4 39 357 90 14 17 9 30 22 30 279 33 8 27 9 44 24 15 55 62 8 6 8 5 73 373 17 6 154 14 42 18 173 447 333 166 7 69 36 6 151 52 121 439 559 193 361 4 5 4 35 12 107 72
internal_value=-6.61224e-07 -0.000241615 0.00491412 3.0418e-06 -0.00265144 -7.01449e-05 0.00664096 0.00612726 0.00535378 0.00770689 0.00908568 0.00276397 0.00609374 0.00115561 1.52728e-05 -0.00072045 -0.00360609 -0.00392026 0.00981847 -0.0018857 0.00569372 0.00354171 -2.30716e-05 0.00165911 -0.00338319 -0.00216747 -0.00443632 0.000869356 -0.000978519 -0.0015487 0.000223119 0.0010499 -0.00369067 -0.00313258 -0.00326385 -0.0038198 -0.00108861 8.11555e-06 0.00132874 -0.00286906 -0.000191028 -0.000525838 -0.00169668 0.00428157 -0.000550389 4.33402e-05 -3.53722e-05 0.000157718 0.000550524 0.000399115 -0.000252331 -0.000594125 -0.000274554 0.000460802 -0.000127007 6.43137e-05 2.27272e-05 -1.3455e-05 -5.82518e-05 -0.000141952 -9.48483e-05 -7.24842e-05 -2.22535e-05 -4.5517e-05 -2.94479e-06 -5.02729e-06
internal_weight=10067.3 9597.48 469.85 8712.98 884.499 8192.37 259.738 225.122 153.021 72.1003 46.9934 210.112 116.74 520.606 7240.31 952.066 392.281 232.36 34.6166 492.218 104.674 115.069 6108.93 186.561 116.664 264.98 115.696 334.045 406.228 227.238 1131.37 210.54 86.8815 159.921 136.746 53.9303 313.053 5147.61 117.803 82.8152 961.321 545.838 175.89 46.516 502.567 2856.71 2290.91 829.69 123.505 301.684 482.351 93.1754 393.354 168.881 478.969 1391.4 1465.31 1192.79 1098.12 88.9978 231.982 480.377 597.172 617.738 595.619 414.561
internal_count=5630 5452 178 5178 274 4914 92 75 56 19 12 86 46 264 4461 453 97 58 17 177 42 55 3762 89 32 90 26 175 176 87 699 124 24 39 33 13 146 3214 50 20 548 277 72 25 263 1818 1396 523 51 176 268 30 228 107 280 886 932 740 656 40 126 283 368 373 372 265
is_linear=0
shrinkage=0.02


Tree=12
num_leaves=40
num_cat=0
split_feature=36 36 36 36 36 1 36 68 63 36 59 36 0 89 36 36 36 44 87 36 36 36 80 2 36 69 36 36 36 36 36 36 36 36 36 36 36 36 36
split_gain=30.6007 14.7211 5.06652 1.83248 1.22975 1.05788 0.729257 0.518507 0.411002 0.258108 0.174516 0.139917 0.131746 0.185013 0.0932344 0.0807545 0.059049 0.041382 0.0320569 0.0287209 0.0272492 0.0265753 0.0171693 0.016666 0.0164955 0.0142919 0.00607995 0.0058726 0.00533431 0.00457211 0.00117598 0.000830459 0.000579269 0.000453683 0.000339251 0.000270768 0.000101688 2.66964e-05 1.05157e-05
threshold=0.29216632246971136 -0.0864104889333248 0.049788387492299087 -0.15244187414646146 -0.024494539014995095 1.8343391418457033 0.13136333972215655 316.42364501953131 0.2563189566135407 0.01028187992051244 442.45178222656256 -0.046319371089339249 701.51757812500011 0.0345944780856371 -0.0066513938363641492 -0.11310619860887526 0.086063664406538024 912.79037475585949 0.56866508722305309 0.02208056673407555 -0.06197423301637172 -0.00027413463976699853 0.86561813950538646 195.86439514160159 -0.013558749575167893 1.2467082738876345 -0.037562483921647065 0.0032864270033314828 0.032303426414728172 -0.0031018932349979873 -0.010062739718705414 -0.019795672968029972 -0.0046165031380951396 -0.0018860311829484997 0.006170867010951043 0.0010918590705841782 0.014498212840408089 -0.0026018372736871238 -0.0033747316338121887
decision_type=2 2 2 2 2 2 2 2 2 2 2 2 2 2 2 2 2 2 2 2 2 2 2 2 2 2 2 2 2 2 2 2 2 2 2 2 2 2 2
left_child=1 3 4 10 11 12 16 8 17 14 25 20 13 23 24 -5 -4 -7 22 36 -3 29 -12 -2 31 -1 -13 35 -21 32 -26 -6 -16 37 -29 -23 -11 -31 -34
right_child=5 2 6 15 9 7 -8 -9 -10 19 18 26 -14 -15 21 -17 -18 -19 -20 28 -22 27 -24 -25 30 -27 -28 34 -30 33 -32 -33 38 -35 -36 -37 -38 -39 -40
leaf_value=-0.0030888443600030225 0.0048051904362291179 -0.0011627459531291236 0.001035786214818295 -0.0021263995744653409 -0.00029915593175303254 0.010128740914335662 0.0028314870153324455 0.0068026640411215176 0.013026182720036675 0.0002254334391927581 -0.0040695026861338902 -0.0006161048573902401 0.0050338547707166259 0.0082127609766136662 -4.102482894002426e-05 -0.0015586201711660192 0.0015853672633206581 0.0073618430437463389 -0.0035316182855059286 0.00045229305870526476 -0.00080726597796354916 4.9311550285103173e-05 -0.0050394888553228446 0.0063682222598924225 -0.00013691159883517191 -0.0036685193696584066 -0.00044797044424897328 0.00011475579917766362 0.00066103877828022821 0 -8.0156717905296296e-05 -0.00021177267141106606 -1.5457431238777941e-05 2.7609231196904868e-05 0.00016440765231737767 7.5282598011332106e-05 0.0003155551584335069 8.265460172497331e-06 0
leaf_weight=115.60145568847656 24.154726982116699 226.89695739746094 166.95904541015625 264.5330810546875 178.26806640625 15.305917263031004 209.58488464355469 38.139823913574219 17.972843170166016 147.38008117675781 55.117903232574463 196.63198852539062 56.258696556091309 26.191570281982422 790.13771057128906 209.970458984375 193.9437255859375 21.618778705596924 36.14826488494873 158.37965393066406 198.090087890625 707.29907286167145 56.488226413726807 32.760139465332031 307.77825927734375 100.01835632324219 353.67405700683594 413.66416931152344 153.06460571289062 302.94151306152344 648.59857177734375 297.98190307617188 592.79415893554688 1023.7700958251953 284.79252624511719 686.8931884765625 160.97444152832031 446.16661071777344 150.38180541992188
leaf_count=36 13 95 85 91 93 7 89 10 7 87 12 97 20 12 473 80 92 6 8 89 93 449 12 16 178 29 180 263 81 188 382 170 363 651 176 436 90 279 92
internal_value=-6.13685e-07 -0.000170384 6.57004e-05 -0.00270515 -5.7722e-05 0.00716445 0.00188895 0.00886719 0.0102091 2.95777e-05 -0.00377694 -0.000725393 0.00599295 0.00659626 -5.74611e-06 -0.00187916 0.00133567 0.00865549 -0.00435034 0.000420223 -0.00100055 3.21649e-05 -0.00458966 0.00576991 -0.000149272 -0.00337023 -0.000510367 8.79457e-05 0.000558986 -2.84706e-06 -9.95285e-05 -0.000246859 -2.83931e-05 1.86849e-05 0.000136535 6.28464e-05 0.000276153 5.1442e-06 -1.36e-05
internal_weight=10067.3 9834.92 8997.05 837.878 8426.56 232.402 570.488 93.0374 54.8975 7451.27 363.374 975.293 139.365 83.1064 6831.47 474.504 360.903 36.9247 147.754 619.799 424.987 5398.84 111.606 56.9149 1432.63 215.62 550.306 2092.65 311.444 3306.19 956.377 476.25 1533.31 1772.88 698.457 1394.19 308.355 749.108 743.176
internal_count=5630 5539 5271 268 5005 91 266 30 20 4540 97 465 61 41 4193 171 177 13 32 347 188 3370 24 29 823 65 277 1324 170 2046 560 263 928 1118 439 885 177 467 455
is_linear=0
shrinkage=0.02


Tree=13
num_leaves=40
num_cat=0
split_feature=36 36 36 36 36 1 36 68 63 36 59 36 0 89 36 36 36 44 36 36 36 36 2 69 11 80 36 36 36 36 36 36 36 36 36 36 36 36 2
split_gain=29.4157 14.1426 4.86674 1.76086 1.18137 1.01715 0.700199 0.498687 0.39404 0.248036 0.167528 0.134327 0.126397 0.177156 0.0896075 0.077374 0.0565842 0.0391593 0.0275457 0.0260736 0.023908 0.0180645 0.0153994 0.0134066 0.013308 0.0100238 0.00579107 0.00512393 0.0050692 0.00397711 0.00159399 0.000780692 0.000675816 0.000521011 8.1974e-05 7.06848e-05 2.73979e-05 2.30551e-05 8.32888e-08
threshold=0.29216632246971136 -0.0864104889333248 0.049788387492299087 -0.15244187414646146 -0.024494539014995095 1.8343391418457033 0.13136333972215655 316.42364501953131 0.2563189566135407 0.01028187992051244 442.45178222656256 -0.046319371089339249 701.51757812500011 0.0345944780856371 -0.0061475576367229215 -0.11310619860887526 0.086063664406538024 912.79037475585949 0.02208056673407555 -0.06197423301637172 0.00047256327525246894 -0.013558749575167893 195.86439514160159 1.2467082738876345 2.1780281066894536 0.86561813950538646 -0.037562483921647065 -0.0028540125349536534 0.032303426414728172 0.0040632793679833421 -0.0087968735024332983 -0.016262003220617768 -0.0014121539425104854 -0.0042752027511596671 0.00216438458301127 0.014498212840408089 -0.0023581070126965638 -0.0031018932349979873 -0.85574501752853382
decision_type=2 2 2 2 2 2 2 2 2 2 2 2 2 2 2 2 2 2 2 2 2 2 2 2 2 2 2 2 2 2 2 2 2 2 2 2 2 2 2
left_child=1 3 4 10 11 12 16 8 17 14 23 19 13 22 21 -5 -4 -7 35 -3 27 31 -2 -1 25 -12 -13 33 -20 34 -23 -6 36 -16 -22 -11 -29 38 -35
right_child=5 2 6 15 9 7 -8 -9 -10 18 24 26 -14 -15 20 -17 -18 -19 28 -21 29 30 -24 -25 -26 -27 -28 32 -30 -31 -32 -33 -34 37 -36 -37 -38 -39 -40
leaf_value=-0.0030273340003219946 0.0047110403167650505 -0.0011395420839208391 0.0010151314895663138 -0.0020839516113803232 -0.0002669467215471185 0.0099325732884184351 0.0027749920232409313 0.0066683710793292821 0.012772710630463939 0.00022093897578139802 -0.0040269091013697697 -0.00060381412886407191 0.0049340641386245504 0.0080515812769265845 -3.4519066930119873e-05 -0.0015275206780174157 0.0015537415533455341 0.0072179331024770799 0.00044327580091800756 -0.00079116139250402567 6.1475320611918785e-05 -0.00012214421861175056 0.0062427736104799817 -0.0035955143215913726 -0.0037056505629872402 -0.0050030775067929877 -0.00043902299629406609 1.1781031766994161e-06 0.00064786093756644971 0.00014142336957193846 -6.7022686318037039e-05 -0.00017651783581774453 3.611100802793231e-05 -1.0802928462271436e-05 8.7788905344799001e-05 0.00030926371954561471 1.3848860851112542e-05 0 0
leaf_weight=115.60145568847656 24.154719352722168 226.89695739746094 166.95906066894531 264.5330810546875 332.55758666992188 15.305924892425535 209.58488464355469 38.139823913574219 17.972843170166016 147.38018798828125 50.205723285675049 196.63197326660156 56.258696556091309 26.191570281982422 788.54942321777344 209.970458984375 193.94371032714844 21.618778705596924 158.37959289550781 198.09007263183594 683.80638122558594 477.66694641113281 32.760139465332031 100.01835632324219 51.148605823516846 46.400065422058105 353.67408752441406 291.09797668457031 153.06463623046875 568.30616760253906 626.82919311523438 143.69236755371094 1148.0811620950699 584.60021758079529 415.60212707519531 160.974365234375 604.43698120117188 154.19645690917969 12.044664621353148
leaf_count=36 13 95 85 91 180 7 89 10 7 87 11 97 20 12 474 80 92 6 89 93 435 278 16 29 11 10 180 182 81 356 370 83 729 358 264 90 381 95 8
internal_value=-5.50928e-07 -0.000167003 6.43932e-05 -0.00265147 -5.65691e-05 0.00702441 0.00185134 0.00869448 0.0100112 2.89938e-05 -0.00370215 -0.000710977 0.00587527 0.00646714 -5.63108e-06 -0.0018417 0.00130909 0.00848759 0.000411941 -0.00098063 3.39617e-05 -0.000137747 0.00565681 -0.00330323 -0.00426445 -0.00452941 -0.000500215 4.54884e-06 0.000547906 9.65341e-05 -9.18108e-05 -0.000241974 2.55356e-05 -2.26619e-05 7.2367e-05 0.000270712 1.08492e-05 -8.86359e-06 -1.06908e-05
internal_weight=10067.3 9834.92 8997.05 837.878 8426.56 232.402 570.488 93.0374 54.8975 7451.27 363.374 975.293 139.365 83.1064 6831.47 474.504 360.903 36.9247 619.799 424.987 5250.72 1580.75 56.9149 215.62 147.754 96.6058 550.306 3583.01 311.444 1667.71 1104.5 476.25 2043.62 1539.39 1099.41 308.355 895.535 750.841 596.645
internal_count=5630 5539 5271 268 5005 91 266 30 20 4540 97 465 61 41 4193 171 177 13 347 188 3282 911 29 65 32 21 277 2227 170 1055 648 263 1292 935 699 177 563 461 366
is_linear=0
shrinkage=0.02


Tree=14
num_leaves=40
num_cat=0
split_feature=36 36 36 36 36 1 36 68 63 36 36 0 35 89 36 36 36 13 36 36 2 10 10 73 36 2 36 36 36 36 36 36 36 36 36 36 36 36 36
split_gain=28.2767 13.5869 4.67484 1.69206 1.13491 0.977988 0.672294 0.479614 0.377753 0.238358 0.128958 0.123308 0.121255 0.169618 0.0861395 0.0741308 0.054219 0.0377031 0.0264175 0.0249465 0.0245701 0.0215201 0.017003 0.0264685 0.0151903 0.0141957 0.00551442 0.0053943 0.00481566 0.00422539 0.00108294 0.000759372 0.000529288 0.000415164 0.000312787 0.00023518 4.13707e-05 2.43257e-05 9.05871e-06
threshold=0.29216632246971136 -0.0864104889333248 0.049788387492299087 -0.15244187414646146 -0.024494539014995095 1.8343391418457033 0.13136333972215655 316.42364501953131 0.2563189566135407 0.01028187992051244 -0.046319371089339249 1382.888366699219 42.963703155517585 0.0345944780856371 -0.0066513938363641492 -0.11310619860887526 0.086063664406538024 0.088404558598995223 0.02208056673407555 -0.06197423301637172 -0.077169999480247484 -0.63582900166511525 -0.55873197317123402 -0.62540480494499195 -0.013558749575167893 195.86439514160159 -0.037562483921647065 0.0032864270033314828 0.032303426414728172 -0.0031018932349979873 -0.010062739718705414 -0.019795672968029972 -0.0046165031380951396 -0.0018860311829484997 0.006170867010951043 0.0010918590705841782 0.014498212840408089 -0.0026018372736871238 -0.0033747316338121887
decision_type=2 2 2 2 2 2 2 2 2 2 2 2 2 2 2 2 2 2 2 2 2 2 2 2 2 2 2 2 2 2 2 2 2 2 2 2 2 2 2
left_child=1 3 4 11 10 12 16 8 17 14 19 21 13 25 24 -5 -4 -7 36 -3 29 -1 -13 -24 31 -2 -12 35 -20 32 -26 -6 -16 37 -29 -22 -11 -31 -34
right_child=5 2 6 15 9 7 -8 -9 -10 18 26 22 -14 -15 20 -17 -18 -19 28 -21 27 -23 23 -25 30 -27 -28 34 -30 33 -32 -33 38 -35 -36 -37 -38 -39 -40
leaf_value=-0.0038529734976870738 0.0046187310208296306 -0.0011168013112802201 0.00099488994856849404 -0.0020423517920162846 -0.0002878655668701507 0.0061176636290018504 0.0027196240751463309 0.0065367293639634651 0.012524171897215204 0.0002165358016268528 -0.0005917684786411585 -0.0046330681923343608 0.0048362520565334846 0.0078935664892343677 -3.9393122569754199e-05 -0.0014970431860352861 0.0015227463347904397 0.0090235759915188712 0.00043443813245906253 -0.00077537797743768293 4.7422315014949206e-05 -0.0029603883913501532 -0.0035899695035584971 -0.0045659083548951155 -0.00013173889649916026 0.0061197931493095605 -0.0004302554119023983 0.00010997548914137538 0.0006349458595637606 0 -7.6926768091936112e-05 -0.00020308500235924896 -1.481551777632947e-05 2.6495091667371311e-05 0.00015830175395104972 7.2330884405607919e-05 0.00030309754813328491 7.9045515170660464e-06 0
leaf_weight=30.326972961425781 24.154726982116699 226.89697265625 166.95904541015625 264.53305053710938 178.26805114746094 10.419959545135496 209.58489990234375 38.139823913574219 17.972843170166016 147.38014221191406 196.6319580078125 41.086923122406006 56.258696556091309 26.191570281982422 790.1376953125 209.97048950195312 193.9437255859375 26.504736423492432 158.37960815429688 198.09005737304688 705.18832838535309 128.43993377685547 130.55303359031677 32.967343091964722 307.77825927734375 32.760139465332031 353.67410278320312 413.6641845703125 153.06463623046875 302.94149780273438 648.59858703613281 297.98190307617188 592.79417419433594 1025.8807640075684 284.79251098632812 686.89321899414062 160.97439575195312 446.16664123535156 150.38182067871094
leaf_count=10 13 95 85 91 93 4 89 10 7 87 97 9 20 12 473 80 92 9 89 93 448 42 29 7 178 16 180 263 81 188 382 170 363 652 176 436 90 279 92
internal_value=-4.89711e-07 -0.00016369 6.31131e-05 -0.00259885 -5.54382e-05 0.00688713 0.00181448 0.00852514 0.00981706 2.84229e-05 -0.00069685 -0.00362886 0.0057599 0.00634055 -5.51697e-06 -0.00180498 0.00128303 0.00832295 0.000403825 -0.000961109 3.09171e-05 -0.00314873 -0.00398796 -0.00380614 -0.000143479 0.00554593 -0.000490267 8.45969e-05 0.000537047 -2.70897e-06 -9.56709e-05 -0.000237186 -2.72842e-05 1.79587e-05 0.00013121 6.04526e-05 0.00026538 4.92447e-06 -1.30477e-05
internal_weight=10067.3 9834.92 8997.05 837.878 8426.56 232.402 570.488 93.0374 54.8975 7451.27 975.293 363.374 139.365 83.1064 6831.47 474.504 360.903 36.9247 619.799 424.987 5398.84 158.767 204.607 163.52 1432.63 56.9149 550.306 2090.54 311.444 3308.3 956.377 476.25 1533.31 1774.99 698.457 1392.08 308.355 749.108 743.176
internal_count=5630 5539 5271 268 5005 91 266 30 20 4540 465 97 61 41 4193 171 177 13 347 188 3370 52 45 36 823 29 277 1323 170 2047 560 263 928 1119 439 884 177 467 455
is_linear=0
shrinkage=0.02


Tree=15
num_leaves=40
num_cat=0
split_feature=36 36 36 36 36 1 36 68 62 36 36 36 6 7 35 36 36 25 77 36 36 36 7 36 36 6 36 36 36 87 36 36 36 36 36 36 36 59 36
split_gain=26.9472 12.5665 4.42484 1.65886 1.50809 1.34491 1.04563 0.71899 1.40412 0.128545 0.128023 0.121987 0.097146 0.0900245 0.0889777 0.0706953 0.0697952 0.0677159 0.0446189 0.0290562 0.0239066 0.0227558 0.0159921 0.0126179 0.0102207 0.00907518 0.00583962 0.00318342 0.00197491 0.0015926 0.0015786 0.00112371 0.00111415 0.000168917 0.000133191 0.000122387 3.67968e-05 6.59333e-06 1.04615e-06
